digraph Tree {
node [shape=box, style="filled, rounded", color="black", fontname=helvetica] ;
edge [fontname=helvetica] ;
0 [label="dayType <= 1.5\nmae = 90.85\nsamples = 3399\nvalue = 87.71", fillcolor="#e581391c"] ;
1 [label="dayType <= 0.5\nmae = 29.76\nsamples = 1653\nvalue = 68.47", fillcolor="#e5813915"] ;
0 -> 1 [labeldistance=2.5, labelangle=45, headlabel="True"] ;
2 [label="load_factor <= 0.87\nmae = 18.4\nsamples = 1241\nvalue = 65.65", fillcolor="#e5813914"] ;
1 -> 2 ;
3 [label="load_factor <= 0.76\nmae = 20.73\nsamples = 285\nvalue = 43.1", fillcolor="#e581390b"] ;
2 -> 3 ;
4 [label="cosphi_mean <= 0.77\nmae = 11.84\nsamples = 95\nvalue = 31.1", fillcolor="#e5813906"] ;
3 -> 4 ;
5 [label="cosphi_mean <= 0.76\nmae = 1.3\nsamples = 5\nvalue = 16.82", fillcolor="#e5813901"] ;
4 -> 5 ;
6 [label="pression <= 1019.15\nmae = 0.57\nsamples = 4\nvalue = 16.82", fillcolor="#e5813901"] ;
5 -> 6 ;
7 [label="windspeed_mps <= 4.55\nmae = 0.28\nsamples = 3\nvalue = 16.82", fillcolor="#e5813901"] ;
6 -> 7 ;
8 [label="mae = 0.0\nsamples = 1\nvalue = 15.89", fillcolor="#e5813901"] ;
7 -> 8 ;
9 [label="temp_celsius <= 25.5\nmae = 0.15\nsamples = 2\nvalue = 16.82", fillcolor="#e5813901"] ;
7 -> 9 ;
10 [label="mae = 0.0\nsamples = 1\nvalue = 17.56", fillcolor="#e5813901"] ;
9 -> 10 ;
11 [label="mae = 0.0\nsamples = 1\nvalue = 16.82", fillcolor="#e5813901"] ;
9 -> 11 ;
12 [label="mae = 0.0\nsamples = 1\nvalue = 19.13", fillcolor="#e5813902"] ;
6 -> 12 ;
13 [label="mae = 0.0\nsamples = 1\nvalue = 20.67", fillcolor="#e5813902"] ;
5 -> 13 ;
14 [label="voltage_mean <= 13.81\nmae = 11.72\nsamples = 90\nvalue = 32.28", fillcolor="#e5813907"] ;
4 -> 14 ;
15 [label="pression <= 1018.15\nmae = 11.82\nsamples = 52\nvalue = 29.29", fillcolor="#e5813906"] ;
14 -> 15 ;
16 [label="load_factor <= 0.7\nmae = 12.48\nsamples = 41\nvalue = 31.31", fillcolor="#e5813907"] ;
15 -> 16 ;
17 [label="temp_celsius <= 18.0\nmae = 6.62\nsamples = 18\nvalue = 28.58", fillcolor="#e5813905"] ;
16 -> 17 ;
18 [label="pression <= 1016.0\nmae = 3.13\nsamples = 3\nvalue = 16.55", fillcolor="#e5813901"] ;
17 -> 18 ;
19 [label="windspeed_mps <= 3.75\nmae = 0.42\nsamples = 2\nvalue = 16.55", fillcolor="#e5813901"] ;
18 -> 19 ;
20 [label="mae = 0.0\nsamples = 1\nvalue = 16.55", fillcolor="#e5813901"] ;
19 -> 20 ;
21 [label="mae = 0.0\nsamples = 1\nvalue = 14.47", fillcolor="#e5813900"] ;
19 -> 21 ;
22 [label="mae = 0.0\nsamples = 1\nvalue = 33.24", fillcolor="#e5813907"] ;
18 -> 22 ;
23 [label="cosphi_mean <= 0.98\nmae = 5.38\nsamples = 15\nvalue = 29.56", fillcolor="#e5813906"] ;
17 -> 23 ;
24 [label="voltage_mean <= 13.7\nmae = 2.86\nsamples = 14\nvalue = 29.29", fillcolor="#e5813906"] ;
23 -> 24 ;
25 [label="mae = 0.0\nsamples = 1\nvalue = 43.61", fillcolor="#e581390b"] ;
24 -> 25 ;
26 [label="mae = 2.3\nsamples = 13\nvalue = 29.02", fillcolor="#e5813906"] ;
24 -> 26 ;
27 [label="mae = 0.0\nsamples = 1\nvalue = 89.8", fillcolor="#e581391d"] ;
23 -> 27 ;
28 [label="cosphi_mean <= 0.91\nmae = 15.97\nsamples = 23\nvalue = 34.75", fillcolor="#e5813908"] ;
16 -> 28 ;
29 [label="windspeed_mps <= 2.55\nmae = 2.21\nsamples = 4\nvalue = 27.24", fillcolor="#e5813905"] ;
28 -> 29 ;
30 [label="cosphi_mean <= 0.88\nmae = 0.59\nsamples = 3\nvalue = 27.24", fillcolor="#e5813905"] ;
29 -> 30 ;
31 [label="mae = 0.0\nsamples = 1\nvalue = 28.33", fillcolor="#e5813905"] ;
30 -> 31 ;
32 [label="mae = 0.25\nsamples = 2\nvalue = 27.24", fillcolor="#e5813905"] ;
30 -> 32 ;
33 [label="mae = 0.0\nsamples = 1\nvalue = 16.94", fillcolor="#e5813901"] ;
29 -> 33 ;
34 [label="cosphi_mean <= 0.96\nmae = 17.21\nsamples = 19\nvalue = 37.09", fillcolor="#e5813909"] ;
28 -> 34 ;
35 [label="pression <= 1011.35\nmae = 26.97\nsamples = 11\nvalue = 66.18", fillcolor="#e5813914"] ;
34 -> 35 ;
36 [label="mae = 1.53\nsamples = 4\nvalue = 36.29", fillcolor="#e5813908"] ;
35 -> 36 ;
37 [label="mae = 22.8\nsamples = 7\nvalue = 74.52", fillcolor="#e5813917"] ;
35 -> 37 ;
38 [label="windspeed_mps <= 5.05\nmae = 4.14\nsamples = 8\nvalue = 34.35", fillcolor="#e5813908"] ;
34 -> 38 ;
39 [label="mae = 3.91\nsamples = 7\nvalue = 34.35", fillcolor="#e5813908"] ;
38 -> 39 ;
40 [label="mae = 0.0\nsamples = 1\nvalue = 39.87", fillcolor="#e581390a"] ;
38 -> 40 ;
41 [label="voltage_mean <= 13.69\nmae = 5.46\nsamples = 11\nvalue = 21.58", fillcolor="#e5813903"] ;
15 -> 41 ;
42 [label="mae = 0.0\nsamples = 1\nvalue = 44.37", fillcolor="#e581390c"] ;
41 -> 42 ;
43 [label="cosphi_mean <= 0.99\nmae = 4.29\nsamples = 10\nvalue = 21.3", fillcolor="#e5813903"] ;
41 -> 43 ;
44 [label="voltage_mean <= 13.73\nmae = 3.76\nsamples = 8\nvalue = 20.26", fillcolor="#e5813902"] ;
43 -> 44 ;
45 [label="temp_celsius <= 14.5\nmae = 1.0\nsamples = 3\nvalue = 17.93", fillcolor="#e5813901"] ;
44 -> 45 ;
46 [label="mae = 0.0\nsamples = 1\nvalue = 18.69", fillcolor="#e5813902"] ;
45 -> 46 ;
47 [label="mae = 0.47\nsamples = 2\nvalue = 16.69", fillcolor="#e5813901"] ;
45 -> 47 ;
48 [label="voltage_mean <= 13.74\nmae = 3.83\nsamples = 5\nvalue = 21.58", fillcolor="#e5813903"] ;
44 -> 48 ;
49 [label="mae = 0.0\nsamples = 1\nvalue = 43.87", fillcolor="#e581390b"] ;
48 -> 49 ;
50 [label="mae = 1.16\nsamples = 4\nvalue = 21.3", fillcolor="#e5813903"] ;
48 -> 50 ;
51 [label="load_factor <= 0.68\nmae = 0.53\nsamples = 2\nvalue = 27.16", fillcolor="#e5813905"] ;
43 -> 51 ;
52 [label="mae = 0.0\nsamples = 1\nvalue = 27.16", fillcolor="#e5813905"] ;
51 -> 52 ;
53 [label="mae = 0.0\nsamples = 1\nvalue = 28.75", fillcolor="#e5813906"] ;
51 -> 53 ;
54 [label="load_factor <= 0.64\nmae = 10.1\nsamples = 38\nvalue = 36.52", fillcolor="#e5813909"] ;
14 -> 54 ;
55 [label="pression <= 1012.9\nmae = 2.81\nsamples = 5\nvalue = 26.14", fillcolor="#e5813905"] ;
54 -> 55 ;
56 [label="mae = 0.0\nsamples = 1\nvalue = 30.75", fillcolor="#e5813906"] ;
55 -> 56 ;
57 [label="pression <= 1016.6\nmae = 1.87\nsamples = 4\nvalue = 25.98", fillcolor="#e5813904"] ;
55 -> 57 ;
58 [label="mae = 0.0\nsamples = 1\nvalue = 18.91", fillcolor="#e5813902"] ;
57 -> 58 ;
59 [label="temp_celsius <= 19.5\nmae = 0.11\nsamples = 3\nvalue = 26.06", fillcolor="#e5813905"] ;
57 -> 59 ;
60 [label="mae = 0.0\nsamples = 1\nvalue = 25.9", fillcolor="#e5813904"] ;
59 -> 60 ;
61 [label="load_factor <= 0.56\nmae = 0.08\nsamples = 2\nvalue = 26.14", fillcolor="#e5813905"] ;
59 -> 61 ;
62 [label="mae = 0.0\nsamples = 1\nvalue = 26.06", fillcolor="#e5813905"] ;
61 -> 62 ;
63 [label="mae = 0.0\nsamples = 1\nvalue = 26.22", fillcolor="#e5813905"] ;
61 -> 63 ;
64 [label="pression <= 1026.15\nmae = 10.09\nsamples = 33\nvalue = 36.93", fillcolor="#e5813909"] ;
54 -> 64 ;
65 [label="windspeed_mps <= 2.25\nmae = 9.45\nsamples = 32\nvalue = 36.71", fillcolor="#e5813909"] ;
64 -> 65 ;
66 [label="cosphi_mean <= 0.88\nmae = 1.21\nsamples = 4\nvalue = 42.14", fillcolor="#e581390b"] ;
65 -> 66 ;
67 [label="mae = 0.0\nsamples = 1\nvalue = 44.84", fillcolor="#e581390c"] ;
66 -> 67 ;
68 [label="cosphi_mean <= 0.94\nmae = 0.61\nsamples = 3\nvalue = 42.14", fillcolor="#e581390b"] ;
66 -> 68 ;
69 [label="mae = 0.0\nsamples = 1\nvalue = 42.14", fillcolor="#e581390b"] ;
68 -> 69 ;
70 [label="mae = 0.11\nsamples = 2\nvalue = 40.61", fillcolor="#e581390a"] ;
68 -> 70 ;
71 [label="voltage_mean <= 13.82\nmae = 10.1\nsamples = 28\nvalue = 36.52", fillcolor="#e5813909"] ;
65 -> 71 ;
72 [label="cosphi_mean <= 0.96\nmae = 11.47\nsamples = 3\nvalue = 63.89", fillcolor="#e5813913"] ;
71 -> 72 ;
73 [label="mae = 0.0\nsamples = 1\nvalue = 34.02", fillcolor="#e5813908"] ;
72 -> 73 ;
74 [label="mae = 2.28\nsamples = 2\nvalue = 66.17", fillcolor="#e5813914"] ;
72 -> 74 ;
75 [label="voltage_mean <= 13.84\nmae = 9.2\nsamples = 25\nvalue = 36.52", fillcolor="#e5813909"] ;
71 -> 75 ;
76 [label="mae = 5.33\nsamples = 4\nvalue = 27.37", fillcolor="#e5813905"] ;
75 -> 76 ;
77 [label="mae = 8.91\nsamples = 21\nvalue = 36.61", fillcolor="#e5813909"] ;
75 -> 77 ;
78 [label="mae = 0.0\nsamples = 1\nvalue = 75.76", fillcolor="#e5813918"] ;
64 -> 78 ;
79 [label="cosphi_mean <= 0.94\nmae = 21.64\nsamples = 190\nvalue = 50.54", fillcolor="#e581390e"] ;
3 -> 79 ;
80 [label="cosphi_mean <= 0.87\nmae = 8.61\nsamples = 34\nvalue = 34.3", fillcolor="#e5813908"] ;
79 -> 80 ;
81 [label="is_winter <= 0.5\nmae = 4.91\nsamples = 8\nvalue = 24.48", fillcolor="#e5813904"] ;
80 -> 81 ;
82 [label="voltage_mean <= 13.86\nmae = 3.17\nsamples = 7\nvalue = 24.48", fillcolor="#e5813904"] ;
81 -> 82 ;
83 [label="voltage_mean <= 13.79\nmae = 0.81\nsamples = 6\nvalue = 24.48", fillcolor="#e5813904"] ;
82 -> 83 ;
84 [label="temp_celsius <= 22.5\nmae = 0.3\nsamples = 4\nvalue = 24.48", fillcolor="#e5813904"] ;
83 -> 84 ;
85 [label="mae = 0.0\nsamples = 1\nvalue = 23.23", fillcolor="#e5813903"] ;
84 -> 85 ;
86 [label="voltage_mean <= 13.78\nmae = 0.1\nsamples = 3\nvalue = 24.48", fillcolor="#e5813904"] ;
84 -> 86 ;
87 [label="mae = 0.06\nsamples = 2\nvalue = 24.48", fillcolor="#e5813904"] ;
86 -> 87 ;
88 [label="mae = 0.0\nsamples = 1\nvalue = 24.77", fillcolor="#e5813904"] ;
86 -> 88 ;
89 [label="pression <= 1014.65\nmae = 0.89\nsamples = 2\nvalue = 26.84", fillcolor="#e5813905"] ;
83 -> 89 ;
90 [label="mae = 0.0\nsamples = 1\nvalue = 25.95", fillcolor="#e5813904"] ;
89 -> 90 ;
91 [label="mae = 0.0\nsamples = 1\nvalue = 27.73", fillcolor="#e5813905"] ;
89 -> 91 ;
92 [label="mae = 0.0\nsamples = 1\nvalue = 46.52", fillcolor="#e581390c"] ;
82 -> 92 ;
93 [label="mae = 0.0\nsamples = 1\nvalue = 14.36", fillcolor="#e5813900"] ;
81 -> 93 ;
94 [label="cosphi_mean <= 0.91\nmae = 7.1\nsamples = 26\nvalue = 35.64", fillcolor="#e5813908"] ;
80 -> 94 ;
95 [label="voltage_mean <= 13.82\nmae = 2.16\nsamples = 11\nvalue = 32.83", fillcolor="#e5813907"] ;
94 -> 95 ;
96 [label="voltage_mean <= 13.74\nmae = 1.93\nsamples = 8\nvalue = 33.4", fillcolor="#e5813907"] ;
95 -> 96 ;
97 [label="load_factor <= 0.82\nmae = 0.22\nsamples = 2\nvalue = 28.81", fillcolor="#e5813906"] ;
96 -> 97 ;
98 [label="mae = 0.0\nsamples = 1\nvalue = 29.03", fillcolor="#e5813906"] ;
97 -> 98 ;
99 [label="mae = 0.0\nsamples = 1\nvalue = 28.58", fillcolor="#e5813905"] ;
97 -> 99 ;
100 [label="windspeed_mps <= 1.35\nmae = 1.23\nsamples = 6\nvalue = 33.57", fillcolor="#e5813907"] ;
96 -> 100 ;
101 [label="mae = 0.0\nsamples = 1\nvalue = 38.42", fillcolor="#e5813909"] ;
100 -> 101 ;
102 [label="cosphi_mean <= 0.89\nmae = 0.71\nsamples = 5\nvalue = 33.57", fillcolor="#e5813907"] ;
100 -> 102 ;
103 [label="mae = 0.11\nsamples = 2\nvalue = 35.14", fillcolor="#e5813908"] ;
102 -> 103 ;
104 [label="mae = 0.3\nsamples = 3\nvalue = 33.23", fillcolor="#e5813907"] ;
102 -> 104 ;
105 [label="load_factor <= 0.82\nmae = 0.44\nsamples = 3\nvalue = 30.2", fillcolor="#e5813906"] ;
95 -> 105 ;
106 [label="temp_celsius <= 25.5\nmae = 0.1\nsamples = 2\nvalue = 30.2", fillcolor="#e5813906"] ;
105 -> 106 ;
107 [label="mae = 0.0\nsamples = 1\nvalue = 30.2", fillcolor="#e5813906"] ;
106 -> 107 ;
108 [label="mae = 0.0\nsamples = 1\nvalue = 29.91", fillcolor="#e5813906"] ;
106 -> 108 ;
109 [label="mae = 0.0\nsamples = 1\nvalue = 31.67", fillcolor="#e5813907"] ;
105 -> 109 ;
110 [label="is_summer <= 0.5\nmae = 8.39\nsamples = 15\nvalue = 38.8", fillcolor="#e5813909"] ;
94 -> 110 ;
111 [label="windspeed_mps <= 3.55\nmae = 4.35\nsamples = 4\nvalue = 35.64", fillcolor="#e5813908"] ;
110 -> 111 ;
112 [label="load_factor <= 0.8\nmae = 0.31\nsamples = 3\nvalue = 35.64", fillcolor="#e5813908"] ;
111 -> 112 ;
113 [label="mae = 0.0\nsamples = 1\nvalue = 36.79", fillcolor="#e5813909"] ;
112 -> 113 ;
114 [label="windspeed_mps <= 2.75\nmae = 0.1\nsamples = 2\nvalue = 35.64", fillcolor="#e5813908"] ;
112 -> 114 ;
115 [label="mae = 0.0\nsamples = 1\nvalue = 35.64", fillcolor="#e5813908"] ;
114 -> 115 ;
116 [label="mae = 0.0\nsamples = 1\nvalue = 35.24", fillcolor="#e5813908"] ;
114 -> 116 ;
117 [label="mae = 0.0\nsamples = 1\nvalue = 21.18", fillcolor="#e5813903"] ;
111 -> 117 ;
118 [label="pression <= 1012.6\nmae = 7.68\nsamples = 11\nvalue = 43.1", fillcolor="#e581390b"] ;
110 -> 118 ;
119 [label="voltage_mean <= 13.8\nmae = 2.13\nsamples = 5\nvalue = 38.8", fillcolor="#e5813909"] ;
118 -> 119 ;
120 [label="temp_celsius <= 24.5\nmae = 0.4\nsamples = 4\nvalue = 38.08", fillcolor="#e5813909"] ;
119 -> 120 ;
121 [label="mae = 0.0\nsamples = 1\nvalue = 39.52", fillcolor="#e581390a"] ;
120 -> 121 ;
122 [label="mae = 0.14\nsamples = 3\nvalue = 37.96", fillcolor="#e5813909"] ;
120 -> 122 ;
123 [label="mae = 0.0\nsamples = 1\nvalue = 43.1", fillcolor="#e581390b"] ;
119 -> 123 ;
124 [label="cosphi_mean <= 0.93\nmae = 13.41\nsamples = 6\nvalue = 52.85", fillcolor="#e581390f"] ;
118 -> 124 ;
125 [label="temp_celsius <= 24.0\nmae = 5.25\nsamples = 5\nvalue = 51.24", fillcolor="#e581390e"] ;
124 -> 125 ;
126 [label="mae = 0.0\nsamples = 1\nvalue = 42.13", fillcolor="#e581390b"] ;
125 -> 126 ;
127 [label="mae = 2.52\nsamples = 4\nvalue = 54.21", fillcolor="#e581390f"] ;
125 -> 127 ;
128 [label="mae = 0.0\nsamples = 1\nvalue = 89.51", fillcolor="#e581391d"] ;
124 -> 128 ;
129 [label="is_summer <= 0.5\nmae = 22.23\nsamples = 156\nvalue = 52.44", fillcolor="#e581390f"] ;
79 -> 129 ;
130 [label="pression <= 1009.7\nmae = 11.63\nsamples = 94\nvalue = 47.64", fillcolor="#e581390d"] ;
129 -> 130 ;
131 [label="voltage_mean <= 13.78\nmae = 7.48\nsamples = 9\nvalue = 60.88", fillcolor="#e5813912"] ;
130 -> 131 ;
132 [label="windspeed_mps <= 5.75\nmae = 0.53\nsamples = 2\nvalue = 73.75", fillcolor="#e5813917"] ;
131 -> 132 ;
133 [label="mae = 0.0\nsamples = 1\nvalue = 73.75", fillcolor="#e5813917"] ;
132 -> 133 ;
134 [label="mae = 0.0\nsamples = 1\nvalue = 75.06", fillcolor="#e5813917"] ;
132 -> 134 ;
135 [label="pression <= 1008.45\nmae = 5.51\nsamples = 7\nvalue = 60.88", fillcolor="#e5813912"] ;
131 -> 135 ;
136 [label="cosphi_mean <= 0.98\nmae = 6.79\nsamples = 5\nvalue = 54.48", fillcolor="#e581390f"] ;
135 -> 136 ;
137 [label="mae = 0.0\nsamples = 1\nvalue = 29.44", fillcolor="#e5813906"] ;
136 -> 137 ;
138 [label="voltage_mean <= 13.86\nmae = 3.75\nsamples = 4\nvalue = 54.98", fillcolor="#e5813910"] ;
136 -> 138 ;
139 [label="mae = 1.1\nsamples = 3\nvalue = 55.48", fillcolor="#e5813910"] ;
138 -> 139 ;
140 [label="mae = 0.0\nsamples = 1\nvalue = 38.48", fillcolor="#e5813909"] ;
138 -> 140 ;
141 [label="load_factor <= 0.83\nmae = 0.41\nsamples = 2\nvalue = 61.29", fillcolor="#e5813912"] ;
135 -> 141 ;
142 [label="mae = 0.0\nsamples = 1\nvalue = 60.88", fillcolor="#e5813912"] ;
141 -> 142 ;
143 [label="mae = 0.0\nsamples = 1\nvalue = 61.69", fillcolor="#e5813912"] ;
141 -> 143 ;
144 [label="cosphi_mean <= 0.97\nmae = 10.94\nsamples = 85\nvalue = 45.54", fillcolor="#e581390c"] ;
130 -> 144 ;
145 [label="is_winter <= 0.5\nmae = 9.95\nsamples = 12\nvalue = 35.63", fillcolor="#e5813908"] ;
144 -> 145 ;
146 [label="voltage_mean <= 13.8\nmae = 9.53\nsamples = 10\nvalue = 35.98", fillcolor="#e5813908"] ;
145 -> 146 ;
147 [label="voltage_mean <= 13.72\nmae = 9.07\nsamples = 9\nvalue = 35.98", fillcolor="#e5813908"] ;
146 -> 147 ;
148 [label="mae = 0.0\nsamples = 1\nvalue = 20.17", fillcolor="#e5813902"] ;
147 -> 148 ;
149 [label="mae = 8.62\nsamples = 8\nvalue = 35.98", fillcolor="#e5813908"] ;
147 -> 149 ;
150 [label="mae = 0.0\nsamples = 1\nvalue = 52.96", fillcolor="#e581390f"] ;
146 -> 150 ;
151 [label="voltage_mean <= 13.8\nmae = 0.62\nsamples = 2\nvalue = 24.32", fillcolor="#e5813904"] ;
145 -> 151 ;
152 [label="mae = 0.0\nsamples = 1\nvalue = 24.32", fillcolor="#e5813904"] ;
151 -> 152 ;
153 [label="mae = 0.0\nsamples = 1\nvalue = 22.47", fillcolor="#e5813903"] ;
151 -> 153 ;
154 [label="cosphi_mean <= 0.98\nmae = 10.1\nsamples = 73\nvalue = 47.53", fillcolor="#e581390d"] ;
144 -> 154 ;
155 [label="is_spring <= 0.5\nmae = 15.04\nsamples = 10\nvalue = 60.32", fillcolor="#e5813912"] ;
154 -> 155 ;
156 [label="temp_celsius <= 24.5\nmae = 5.75\nsamples = 8\nvalue = 60.32", fillcolor="#e5813912"] ;
155 -> 156 ;
157 [label="mae = 4.92\nsamples = 6\nvalue = 59.52", fillcolor="#e5813911"] ;
156 -> 157 ;
158 [label="mae = 0.43\nsamples = 2\nvalue = 67.86", fillcolor="#e5813915"] ;
156 -> 158 ;
159 [label="pression <= 1014.1\nmae = 44.26\nsamples = 2\nvalue = 126.48", fillcolor="#e581392b"] ;
155 -> 159 ;
160 [label="mae = 0.0\nsamples = 1\nvalue = 82.22", fillcolor="#e581391a"] ;
159 -> 160 ;
161 [label="mae = 0.0\nsamples = 1\nvalue = 170.74", fillcolor="#e581393c"] ;
159 -> 161 ;
162 [label="voltage_mean <= 13.89\nmae = 8.14\nsamples = 63\nvalue = 45.64", fillcolor="#e581390c"] ;
154 -> 162 ;
163 [label="load_factor <= 0.82\nmae = 7.87\nsamples = 56\nvalue = 44.19", fillcolor="#e581390c"] ;
162 -> 163 ;
164 [label="mae = 7.96\nsamples = 24\nvalue = 37.55", fillcolor="#e5813909"] ;
163 -> 164 ;
165 [label="mae = 6.36\nsamples = 32\nvalue = 47.12", fillcolor="#e581390d"] ;
163 -> 165 ;
166 [label="load_factor <= 0.86\nmae = 5.07\nsamples = 7\nvalue = 53.88", fillcolor="#e581390f"] ;
162 -> 166 ;
167 [label="mae = 2.62\nsamples = 6\nvalue = 53.88", fillcolor="#e581390f"] ;
166 -> 167 ;
168 [label="mae = 0.0\nsamples = 1\nvalue = 35.76", fillcolor="#e5813908"] ;
166 -> 168 ;
169 [label="windspeed_mps <= 2.85\nmae = 35.88\nsamples = 62\nvalue = 71.04", fillcolor="#e5813916"] ;
129 -> 169 ;
170 [label="load_factor <= 0.77\nmae = 22.7\nsamples = 28\nvalue = 52.35", fillcolor="#e581390f"] ;
169 -> 170 ;
171 [label="temp_celsius <= 22.5\nmae = 8.67\nsamples = 2\nvalue = 163.07", fillcolor="#e5813939"] ;
170 -> 171 ;
172 [label="mae = 0.0\nsamples = 1\nvalue = 128.4", fillcolor="#e581392c"] ;
171 -> 172 ;
173 [label="mae = 0.0\nsamples = 1\nvalue = 163.07", fillcolor="#e5813939"] ;
171 -> 173 ;
174 [label="temp_celsius <= 22.5\nmae = 15.31\nsamples = 26\nvalue = 52.03", fillcolor="#e581390f"] ;
170 -> 174 ;
175 [label="load_factor <= 0.83\nmae = 18.97\nsamples = 6\nvalue = 86.86", fillcolor="#e581391c"] ;
174 -> 175 ;
176 [label="load_factor <= 0.81\nmae = 6.09\nsamples = 3\nvalue = 56.62", fillcolor="#e5813910"] ;
175 -> 176 ;
177 [label="mae = 0.0\nsamples = 1\nvalue = 42.39", fillcolor="#e581390b"] ;
176 -> 177 ;
178 [label="mae = 2.02\nsamples = 2\nvalue = 58.65", fillcolor="#e5813911"] ;
176 -> 178 ;
179 [label="pression <= 1016.45\nmae = 10.67\nsamples = 3\nvalue = 89.73", fillcolor="#e581391d"] ;
175 -> 179 ;
180 [label="mae = 1.44\nsamples = 2\nvalue = 88.3", fillcolor="#e581391d"] ;
179 -> 180 ;
181 [label="mae = 0.0\nsamples = 1\nvalue = 118.88", fillcolor="#e5813928"] ;
179 -> 181 ;
182 [label="voltage_mean <= 13.85\nmae = 10.41\nsamples = 20\nvalue = 51.09", fillcolor="#e581390e"] ;
174 -> 182 ;
183 [label="load_factor <= 0.79\nmae = 7.15\nsamples = 17\nvalue = 51.01", fillcolor="#e581390e"] ;
182 -> 183 ;
184 [label="mae = 0.0\nsamples = 1\nvalue = 80.39", fillcolor="#e5813919"] ;
183 -> 184 ;
185 [label="mae = 5.62\nsamples = 16\nvalue = 51.01", fillcolor="#e581390e"] ;
183 -> 185 ;
186 [label="temp_celsius <= 25.0\nmae = 16.17\nsamples = 3\nvalue = 85.54", fillcolor="#e581391b"] ;
182 -> 186 ;
187 [label="mae = 4.98\nsamples = 2\nvalue = 80.57", fillcolor="#e581391a"] ;
186 -> 187 ;
188 [label="mae = 0.0\nsamples = 1\nvalue = 124.09", fillcolor="#e581392a"] ;
186 -> 188 ;
189 [label="load_factor <= 0.83\nmae = 38.51\nsamples = 34\nvalue = 97.99", fillcolor="#e5813920"] ;
169 -> 189 ;
190 [label="cosphi_mean <= 0.97\nmae = 32.05\nsamples = 16\nvalue = 134.33", fillcolor="#e581392e"] ;
189 -> 190 ;
191 [label="windspeed_mps <= 5.55\nmae = 22.92\nsamples = 7\nvalue = 105.54", fillcolor="#e5813923"] ;
190 -> 191 ;
192 [label="pression <= 1014.7\nmae = 14.65\nsamples = 6\nvalue = 105.54", fillcolor="#e5813923"] ;
191 -> 192 ;
193 [label="mae = 10.61\nsamples = 5\nvalue = 105.54", fillcolor="#e5813923"] ;
192 -> 193 ;
194 [label="mae = 0.0\nsamples = 1\nvalue = 134.33", fillcolor="#e581392e"] ;
192 -> 194 ;
195 [label="mae = 0.0\nsamples = 1\nvalue = 45.44", fillcolor="#e581390c"] ;
191 -> 195 ;
196 [label="load_factor <= 0.79\nmae = 18.79\nsamples = 9\nvalue = 158.78", fillcolor="#e5813938"] ;
190 -> 196 ;
197 [label="mae = 0.0\nsamples = 1\nvalue = 97.63", fillcolor="#e5813920"] ;
196 -> 197 ;
198 [label="pression <= 1011.45\nmae = 12.16\nsamples = 8\nvalue = 160.29", fillcolor="#e5813938"] ;
196 -> 198 ;
199 [label="mae = 5.37\nsamples = 4\nvalue = 161.95", fillcolor="#e5813939"] ;
198 -> 199 ;
200 [label="mae = 11.6\nsamples = 4\nvalue = 148.77", fillcolor="#e5813934"] ;
198 -> 200 ;
201 [label="cosphi_mean <= 0.97\nmae = 29.36\nsamples = 18\nvalue = 58.06", fillcolor="#e5813911"] ;
189 -> 201 ;
202 [label="temp_celsius <= 30.5\nmae = 15.13\nsamples = 12\nvalue = 55.2", fillcolor="#e5813910"] ;
201 -> 202 ;
203 [label="load_factor <= 0.85\nmae = 7.29\nsamples = 10\nvalue = 51.01", fillcolor="#e581390e"] ;
202 -> 203 ;
204 [label="mae = 0.56\nsamples = 3\nvalue = 42.24", fillcolor="#e581390b"] ;
203 -> 204 ;
205 [label="mae = 5.9\nsamples = 7\nvalue = 55.2", fillcolor="#e5813910"] ;
203 -> 205 ;
206 [label="cosphi_mean <= 0.95\nmae = 3.24\nsamples = 2\nvalue = 94.75", fillcolor="#e581391f"] ;
202 -> 206 ;
207 [label="mae = 0.0\nsamples = 1\nvalue = 97.99", fillcolor="#e5813920"] ;
206 -> 207 ;
208 [label="mae = 0.0\nsamples = 1\nvalue = 91.51", fillcolor="#e581391e"] ;
206 -> 208 ;
209 [label="load_factor <= 0.86\nmae = 38.43\nsamples = 6\nvalue = 117.33", fillcolor="#e5813928"] ;
201 -> 209 ;
210 [label="pression <= 1016.5\nmae = 28.4\nsamples = 5\nvalue = 111.96", fillcolor="#e5813926"] ;
209 -> 210 ;
211 [label="mae = 15.37\nsamples = 3\nvalue = 58.06", fillcolor="#e5813911"] ;
210 -> 211 ;
212 [label="mae = 4.47\nsamples = 2\nvalue = 117.33", fillcolor="#e5813928"] ;
210 -> 212 ;
213 [label="mae = 0.0\nsamples = 1\nvalue = 188.17", fillcolor="#e5813943"] ;
209 -> 213 ;
214 [label="cosphi_mean <= 0.99\nmae = 15.03\nsamples = 956\nvalue = 67.94", fillcolor="#e5813915"] ;
2 -> 214 ;
215 [label="is_winter <= 0.5\nmae = 14.3\nsamples = 847\nvalue = 69.3", fillcolor="#e5813915"] ;
214 -> 215 ;
216 [label="temp_celsius <= 29.5\nmae = 15.15\nsamples = 706\nvalue = 70.37", fillcolor="#e5813916"] ;
215 -> 216 ;
217 [label="temp_celsius <= 20.5\nmae = 14.65\nsamples = 702\nvalue = 70.34", fillcolor="#e5813916"] ;
216 -> 217 ;
218 [label="cosphi_mean <= 0.98\nmae = 3.87\nsamples = 120\nvalue = 66.69", fillcolor="#e5813914"] ;
217 -> 218 ;
219 [label="windspeed_mps <= 1.6\nmae = 3.26\nsamples = 53\nvalue = 68.51", fillcolor="#e5813915"] ;
218 -> 219 ;
220 [label="mae = 0.0\nsamples = 1\nvalue = 52.61", fillcolor="#e581390f"] ;
219 -> 220 ;
221 [label="pression <= 1009.05\nmae = 2.76\nsamples = 52\nvalue = 68.81", fillcolor="#e5813915"] ;
219 -> 221 ;
222 [label="voltage_mean <= 13.9\nmae = 2.02\nsamples = 5\nvalue = 73.08", fillcolor="#e5813917"] ;
221 -> 222 ;
223 [label="mae = 0.35\nsamples = 4\nvalue = 73.08", fillcolor="#e5813917"] ;
222 -> 223 ;
224 [label="mae = 0.0\nsamples = 1\nvalue = 88.4", fillcolor="#e581391d"] ;
222 -> 224 ;
225 [label="voltage_mean <= 13.77\nmae = 2.27\nsamples = 47\nvalue = 68.35", fillcolor="#e5813915"] ;
221 -> 225 ;
226 [label="mae = 3.28\nsamples = 3\nvalue = 60.48", fillcolor="#e5813912"] ;
225 -> 226 ;
227 [label="mae = 1.94\nsamples = 44\nvalue = 68.36", fillcolor="#e5813915"] ;
225 -> 227 ;
228 [label="load_factor <= 0.93\nmae = 3.53\nsamples = 67\nvalue = 65.9", fillcolor="#e5813914"] ;
218 -> 228 ;
229 [label="cosphi_mean <= 0.98\nmae = 6.86\nsamples = 13\nvalue = 61.37", fillcolor="#e5813912"] ;
228 -> 229 ;
230 [label="voltage_mean <= 13.83\nmae = 0.29\nsamples = 2\nvalue = 71.17", fillcolor="#e5813916"] ;
229 -> 230 ;
231 [label="mae = 0.0\nsamples = 1\nvalue = 71.17", fillcolor="#e5813916"] ;
230 -> 231 ;
232 [label="mae = 0.0\nsamples = 1\nvalue = 72.34", fillcolor="#e5813916"] ;
230 -> 232 ;
233 [label="is_fall <= 0.5\nmae = 6.0\nsamples = 11\nvalue = 60.2", fillcolor="#e5813912"] ;
229 -> 233 ;
234 [label="mae = 3.25\nsamples = 8\nvalue = 61.37", fillcolor="#e5813912"] ;
233 -> 234 ;
235 [label="mae = 4.48\nsamples = 3\nvalue = 47.61", fillcolor="#e581390d"] ;
233 -> 235 ;
236 [label="pression <= 1008.35\nmae = 2.03\nsamples = 54\nvalue = 65.99", fillcolor="#e5813914"] ;
228 -> 236 ;
237 [label="mae = 0.0\nsamples = 1\nvalue = 49.81", fillcolor="#e581390e"] ;
236 -> 237 ;
238 [label="temp_celsius <= 16.5\nmae = 1.67\nsamples = 53\nvalue = 65.99", fillcolor="#e5813914"] ;
236 -> 238 ;
239 [label="mae = 2.03\nsamples = 10\nvalue = 63.15", fillcolor="#e5813913"] ;
238 -> 239 ;
240 [label="mae = 1.37\nsamples = 43\nvalue = 66.08", fillcolor="#e5813914"] ;
238 -> 240 ;
241 [label="temp_celsius <= 26.5\nmae = 16.44\nsamples = 582\nvalue = 71.29", fillcolor="#e5813916"] ;
217 -> 241 ;
242 [label="pression <= 1006.45\nmae = 14.19\nsamples = 541\nvalue = 71.19", fillcolor="#e5813916"] ;
241 -> 242 ;
243 [label="load_factor <= 0.88\nmae = 14.78\nsamples = 32\nvalue = 80.2", fillcolor="#e5813919"] ;
242 -> 243 ;
244 [label="mae = 0.0\nsamples = 1\nvalue = 147.7", fillcolor="#e5813933"] ;
243 -> 244 ;
245 [label="load_factor <= 0.89\nmae = 13.68\nsamples = 31\nvalue = 80.2", fillcolor="#e5813919"] ;
243 -> 245 ;
246 [label="mae = 0.0\nsamples = 1\nvalue = 55.55", fillcolor="#e5813910"] ;
245 -> 246 ;
247 [label="mae = 13.2\nsamples = 30\nvalue = 80.58", fillcolor="#e581391a"] ;
245 -> 247 ;
248 [label="cosphi_mean <= 0.99\nmae = 13.99\nsamples = 509\nvalue = 70.88", fillcolor="#e5813916"] ;
242 -> 248 ;
249 [label="load_factor <= 0.9\nmae = 13.85\nsamples = 508\nvalue = 70.8", fillcolor="#e5813916"] ;
248 -> 249 ;
250 [label="mae = 20.57\nsamples = 47\nvalue = 62.71", fillcolor="#e5813913"] ;
249 -> 250 ;
251 [label="mae = 12.93\nsamples = 461\nvalue = 71.19", fillcolor="#e5813916"] ;
249 -> 251 ;
252 [label="mae = 0.0\nsamples = 1\nvalue = 143.51", fillcolor="#e5813932"] ;
248 -> 252 ;
253 [label="cosphi_mean <= 0.97\nmae = 44.95\nsamples = 41\nvalue = 85.59", fillcolor="#e581391c"] ;
241 -> 253 ;
254 [label="load_factor <= 0.89\nmae = 23.52\nsamples = 23\nvalue = 76.22", fillcolor="#e5813918"] ;
253 -> 254 ;
255 [label="load_factor <= 0.88\nmae = 3.83\nsamples = 4\nvalue = 42.62", fillcolor="#e581390b"] ;
254 -> 255 ;
256 [label="mae = 0.39\nsamples = 2\nvalue = 51.34", fillcolor="#e581390e"] ;
255 -> 256 ;
257 [label="mae = 0.69\nsamples = 2\nvalue = 41.24", fillcolor="#e581390a"] ;
255 -> 257 ;
258 [label="voltage_mean <= 13.9\nmae = 21.42\nsamples = 19\nvalue = 81.56", fillcolor="#e581391a"] ;
254 -> 258 ;
259 [label="mae = 19.08\nsamples = 18\nvalue = 83.0", fillcolor="#e581391b"] ;
258 -> 259 ;
260 [label="mae = 0.0\nsamples = 1\nvalue = 28.84", fillcolor="#e5813906"] ;
258 -> 260 ;
261 [label="windspeed_mps <= 5.15\nmae = 49.75\nsamples = 18\nvalue = 148.44", fillcolor="#e5813934"] ;
253 -> 261 ;
262 [label="windspeed_mps <= 2.45\nmae = 51.74\nsamples = 10\nvalue = 65.99", fillcolor="#e5813914"] ;
261 -> 262 ;
263 [label="mae = 13.74\nsamples = 3\nvalue = 211.99", fillcolor="#e581394c"] ;
262 -> 263 ;
264 [label="mae = 7.55\nsamples = 7\nvalue = 59.94", fillcolor="#e5813912"] ;
262 -> 264 ;
265 [label="voltage_mean <= 13.79\nmae = 23.21\nsamples = 8\nvalue = 152.12", fillcolor="#e5813935"] ;
261 -> 265 ;
266 [label="mae = 12.51\nsamples = 3\nvalue = 194.23", fillcolor="#e5813945"] ;
265 -> 266 ;
267 [label="mae = 4.51\nsamples = 5\nvalue = 145.17", fillcolor="#e5813933"] ;
265 -> 267 ;
268 [label="voltage_mean <= 13.8\nmae = 29.27\nsamples = 4\nvalue = 223.98", fillcolor="#e5813951"] ;
216 -> 268 ;
269 [label="load_factor <= 0.91\nmae = 7.16\nsamples = 3\nvalue = 223.98", fillcolor="#e5813951"] ;
268 -> 269 ;
270 [label="mae = 0.0\nsamples = 1\nvalue = 203.59", fillcolor="#e5813949"] ;
269 -> 270 ;
271 [label="voltage_mean <= 13.75\nmae = 2.74\nsamples = 2\nvalue = 223.98", fillcolor="#e5813951"] ;
269 -> 271 ;
272 [label="mae = 0.0\nsamples = 1\nvalue = 232.22", fillcolor="#e5813954"] ;
271 -> 272 ;
273 [label="mae = 0.0\nsamples = 1\nvalue = 223.98", fillcolor="#e5813951"] ;
271 -> 273 ;
274 [label="mae = 0.0\nsamples = 1\nvalue = 106.24", fillcolor="#e5813923"] ;
268 -> 274 ;
275 [label="load_factor <= 0.9\nmae = 2.9\nsamples = 141\nvalue = 61.5", fillcolor="#e5813912"] ;
215 -> 275 ;
276 [label="cosphi_mean <= 0.98\nmae = 11.53\nsamples = 8\nvalue = 45.04", fillcolor="#e581390c"] ;
275 -> 276 ;
277 [label="cosphi_mean <= 0.97\nmae = 2.64\nsamples = 3\nvalue = 26.41", fillcolor="#e5813905"] ;
276 -> 277 ;
278 [label="voltage_mean <= 13.84\nmae = 0.23\nsamples = 2\nvalue = 26.41", fillcolor="#e5813905"] ;
277 -> 278 ;
279 [label="mae = 0.0\nsamples = 1\nvalue = 26.41", fillcolor="#e5813905"] ;
278 -> 279 ;
280 [label="mae = 0.0\nsamples = 1\nvalue = 25.7", fillcolor="#e5813904"] ;
278 -> 280 ;
281 [label="mae = 0.0\nsamples = 1\nvalue = 36.25", fillcolor="#e5813908"] ;
277 -> 281 ;
282 [label="load_factor <= 0.89\nmae = 4.48\nsamples = 5\nvalue = 54.76", fillcolor="#e5813910"] ;
276 -> 282 ;
283 [label="windspeed_mps <= 3.3\nmae = 2.37\nsamples = 4\nvalue = 56.52", fillcolor="#e5813910"] ;
282 -> 283 ;
284 [label="mae = 0.0\nsamples = 1\nvalue = 48.57", fillcolor="#e581390d"] ;
283 -> 284 ;
285 [label="voltage_mean <= 13.92\nmae = 0.98\nsamples = 3\nvalue = 56.52", fillcolor="#e5813910"] ;
283 -> 285 ;
286 [label="windspeed_mps <= 4.15\nmae = 0.13\nsamples = 2\nvalue = 56.52", fillcolor="#e5813910"] ;
285 -> 286 ;
287 [label="mae = 0.0\nsamples = 1\nvalue = 56.52", fillcolor="#e5813910"] ;
286 -> 287 ;
288 [label="mae = 0.0\nsamples = 1\nvalue = 56.92", fillcolor="#e5813910"] ;
286 -> 288 ;
289 [label="mae = 0.0\nsamples = 1\nvalue = 53.0", fillcolor="#e581390f"] ;
285 -> 289 ;
290 [label="mae = 0.0\nsamples = 1\nvalue = 41.5", fillcolor="#e581390a"] ;
282 -> 290 ;
291 [label="temp_celsius <= 16.5\nmae = 2.08\nsamples = 133\nvalue = 61.57", fillcolor="#e5813912"] ;
275 -> 291 ;
292 [label="pression <= 1020.0\nmae = 2.46\nsamples = 73\nvalue = 60.36", fillcolor="#e5813912"] ;
291 -> 292 ;
293 [label="load_factor <= 0.92\nmae = 2.24\nsamples = 36\nvalue = 59.13", fillcolor="#e5813911"] ;
292 -> 293 ;
294 [label="mae = 0.0\nsamples = 1\nvalue = 45.73", fillcolor="#e581390c"] ;
293 -> 294 ;
295 [label="windspeed_mps <= 1.75\nmae = 1.82\nsamples = 35\nvalue = 59.15", fillcolor="#e5813911"] ;
293 -> 295 ;
296 [label="voltage_mean <= 13.89\nmae = 1.21\nsamples = 4\nvalue = 64.96", fillcolor="#e5813914"] ;
295 -> 296 ;
297 [label="mae = 0.15\nsamples = 3\nvalue = 64.97", fillcolor="#e5813914"] ;
296 -> 297 ;
298 [label="mae = 0.0\nsamples = 1\nvalue = 59.54", fillcolor="#e5813911"] ;
296 -> 298 ;
299 [label="temp_celsius <= 12.5\nmae = 1.53\nsamples = 31\nvalue = 58.87", fillcolor="#e5813911"] ;
295 -> 299 ;
300 [label="mae = 0.93\nsamples = 6\nvalue = 56.78", fillcolor="#e5813910"] ;
299 -> 300 ;
301 [label="mae = 1.34\nsamples = 25\nvalue = 59.36", fillcolor="#e5813911"] ;
299 -> 301 ;
302 [label="cosphi_mean <= 0.97\nmae = 1.99\nsamples = 37\nvalue = 61.54", fillcolor="#e5813912"] ;
292 -> 302 ;
303 [label="temp_celsius <= 13.5\nmae = 0.19\nsamples = 2\nvalue = 57.33", fillcolor="#e5813911"] ;
302 -> 303 ;
304 [label="mae = 0.0\nsamples = 1\nvalue = 56.76", fillcolor="#e5813910"] ;
303 -> 304 ;
305 [label="mae = 0.0\nsamples = 1\nvalue = 57.33", fillcolor="#e5813911"] ;
303 -> 305 ;
306 [label="voltage_mean <= 13.86\nmae = 1.83\nsamples = 35\nvalue = 61.67", fillcolor="#e5813912"] ;
302 -> 306 ;
307 [label="cosphi_mean <= 0.98\nmae = 2.35\nsamples = 14\nvalue = 60.81", fillcolor="#e5813912"] ;
306 -> 307 ;
308 [label="mae = 0.73\nsamples = 4\nvalue = 56.49", fillcolor="#e5813910"] ;
307 -> 308 ;
309 [label="mae = 0.63\nsamples = 10\nvalue = 61.02", fillcolor="#e5813912"] ;
307 -> 309 ;
310 [label="cosphi_mean <= 0.98\nmae = 1.12\nsamples = 21\nvalue = 62.43", fillcolor="#e5813913"] ;
306 -> 310 ;
311 [label="mae = 0.86\nsamples = 15\nvalue = 61.94", fillcolor="#e5813912"] ;
310 -> 311 ;
312 [label="mae = 0.73\nsamples = 6\nvalue = 63.1", fillcolor="#e5813913"] ;
310 -> 312 ;
313 [label="pression <= 1010.15\nmae = 1.21\nsamples = 60\nvalue = 62.36", fillcolor="#e5813913"] ;
291 -> 313 ;
314 [label="voltage_mean <= 13.88\nmae = 0.27\nsamples = 3\nvalue = 66.44", fillcolor="#e5813914"] ;
313 -> 314 ;
315 [label="voltage_mean <= 13.86\nmae = 0.14\nsamples = 2\nvalue = 66.78", fillcolor="#e5813914"] ;
314 -> 315 ;
316 [label="mae = 0.0\nsamples = 1\nvalue = 66.64", fillcolor="#e5813914"] ;
315 -> 316 ;
317 [label="mae = 0.0\nsamples = 1\nvalue = 66.91", fillcolor="#e5813914"] ;
315 -> 317 ;
318 [label="mae = 0.0\nsamples = 1\nvalue = 66.25", fillcolor="#e5813914"] ;
314 -> 318 ;
319 [label="temp_celsius <= 18.5\nmae = 1.06\nsamples = 57\nvalue = 62.24", fillcolor="#e5813912"] ;
313 -> 319 ;
320 [label="pression <= 1013.9\nmae = 0.9\nsamples = 48\nvalue = 62.45", fillcolor="#e5813913"] ;
319 -> 320 ;
321 [label="load_factor <= 0.94\nmae = 0.49\nsamples = 10\nvalue = 61.57", fillcolor="#e5813912"] ;
320 -> 321 ;
322 [label="mae = 0.0\nsamples = 1\nvalue = 60.18", fillcolor="#e5813912"] ;
321 -> 322 ;
323 [label="mae = 0.32\nsamples = 9\nvalue = 61.7", fillcolor="#e5813912"] ;
321 -> 323 ;
324 [label="pression <= 1019.15\nmae = 0.86\nsamples = 38\nvalue = 62.75", fillcolor="#e5813913"] ;
320 -> 324 ;
325 [label="mae = 0.74\nsamples = 23\nvalue = 63.3", fillcolor="#e5813913"] ;
324 -> 325 ;
326 [label="mae = 0.49\nsamples = 15\nvalue = 61.91", fillcolor="#e5813912"] ;
324 -> 326 ;
327 [label="windspeed_mps <= 2.9\nmae = 0.87\nsamples = 9\nvalue = 60.07", fillcolor="#e5813912"] ;
319 -> 327 ;
328 [label="load_factor <= 0.96\nmae = 0.48\nsamples = 3\nvalue = 61.74", fillcolor="#e5813912"] ;
327 -> 328 ;
329 [label="mae = 0.09\nsamples = 2\nvalue = 61.65", fillcolor="#e5813912"] ;
328 -> 329 ;
330 [label="mae = 0.0\nsamples = 1\nvalue = 63.0", fillcolor="#e5813913"] ;
328 -> 330 ;
331 [label="voltage_mean <= 13.9\nmae = 0.47\nsamples = 6\nvalue = 60.04", fillcolor="#e5813912"] ;
327 -> 331 ;
332 [label="mae = 0.38\nsamples = 5\nvalue = 60.04", fillcolor="#e5813912"] ;
331 -> 332 ;
333 [label="mae = 0.0\nsamples = 1\nvalue = 61.2", fillcolor="#e5813912"] ;
331 -> 333 ;
334 [label="windspeed_mps <= 0.95\nmae = 7.79\nsamples = 109\nvalue = 49.53", fillcolor="#e581390e"] ;
214 -> 334 ;
335 [label="cosphi_mean <= 0.99\nmae = 21.33\nsamples = 3\nvalue = 139.5", fillcolor="#e5813930"] ;
334 -> 335 ;
336 [label="windspeed_mps <= 0.85\nmae = 5.43\nsamples = 2\nvalue = 139.5", fillcolor="#e5813930"] ;
335 -> 336 ;
337 [label="mae = 0.0\nsamples = 1\nvalue = 117.77", fillcolor="#e5813928"] ;
336 -> 337 ;
338 [label="mae = 0.0\nsamples = 1\nvalue = 139.5", fillcolor="#e5813930"] ;
336 -> 338 ;
339 [label="mae = 0.0\nsamples = 1\nvalue = 54.59", fillcolor="#e5813910"] ;
335 -> 339 ;
340 [label="load_factor <= 0.96\nmae = 6.14\nsamples = 106\nvalue = 49.31", fillcolor="#e581390d"] ;
334 -> 340 ;
341 [label="load_factor <= 0.92\nmae = 5.93\nsamples = 103\nvalue = 49.23", fillcolor="#e581390d"] ;
340 -> 341 ;
342 [label="voltage_mean <= 13.75\nmae = 6.84\nsamples = 48\nvalue = 48.1", fillcolor="#e581390d"] ;
341 -> 342 ;
343 [label="is_winter <= 0.5\nmae = 6.68\nsamples = 9\nvalue = 38.94", fillcolor="#e5813909"] ;
342 -> 343 ;
344 [label="windspeed_mps <= 4.85\nmae = 5.04\nsamples = 7\nvalue = 40.96", fillcolor="#e581390a"] ;
343 -> 344 ;
345 [label="temp_celsius <= 25.5\nmae = 4.39\nsamples = 3\nvalue = 55.82", fillcolor="#e5813910"] ;
344 -> 345 ;
346 [label="mae = 2.88\nsamples = 2\nvalue = 58.7", fillcolor="#e5813911"] ;
345 -> 346 ;
347 [label="mae = 0.0\nsamples = 1\nvalue = 48.42", fillcolor="#e581390d"] ;
345 -> 347 ;
348 [label="pression <= 1010.1\nmae = 1.85\nsamples = 4\nvalue = 40.67", fillcolor="#e581390a"] ;
344 -> 348 ;
349 [label="mae = 0.0\nsamples = 1\nvalue = 37.22", fillcolor="#e5813909"] ;
348 -> 349 ;
350 [label="mae = 0.46\nsamples = 3\nvalue = 41.25", fillcolor="#e581390a"] ;
348 -> 350 ;
351 [label="pression <= 1025.35\nmae = 2.03\nsamples = 2\nvalue = 31.09", fillcolor="#e5813906"] ;
343 -> 351 ;
352 [label="mae = 0.0\nsamples = 1\nvalue = 31.09", fillcolor="#e5813906"] ;
351 -> 352 ;
353 [label="mae = 0.0\nsamples = 1\nvalue = 22.98", fillcolor="#e5813903"] ;
351 -> 353 ;
354 [label="temp_celsius <= 13.0\nmae = 5.85\nsamples = 39\nvalue = 48.18", fillcolor="#e581390d"] ;
342 -> 354 ;
355 [label="mae = 0.0\nsamples = 1\nvalue = 61.08", fillcolor="#e5813912"] ;
354 -> 355 ;
356 [label="cosphi_mean <= 1.0\nmae = 5.52\nsamples = 38\nvalue = 48.14", fillcolor="#e581390d"] ;
354 -> 356 ;
357 [label="load_factor <= 0.89\nmae = 5.14\nsamples = 37\nvalue = 48.14", fillcolor="#e581390d"] ;
356 -> 357 ;
358 [label="mae = 4.61\nsamples = 7\nvalue = 51.58", fillcolor="#e581390e"] ;
357 -> 358 ;
359 [label="mae = 4.85\nsamples = 30\nvalue = 48.01", fillcolor="#e581390d"] ;
357 -> 359 ;
360 [label="mae = 0.0\nsamples = 1\nvalue = 65.56", fillcolor="#e5813914"] ;
356 -> 360 ;
361 [label="voltage_mean <= 13.78\nmae = 4.7\nsamples = 55\nvalue = 50.78", fillcolor="#e581390e"] ;
341 -> 361 ;
362 [label="windspeed_mps <= 3.6\nmae = 4.24\nsamples = 12\nvalue = 53.8", fillcolor="#e581390f"] ;
361 -> 362 ;
363 [label="pression <= 1014.8\nmae = 1.05\nsamples = 4\nvalue = 66.59", fillcolor="#e5813914"] ;
362 -> 363 ;
364 [label="mae = 0.0\nsamples = 1\nvalue = 63.5", fillcolor="#e5813913"] ;
363 -> 364 ;
365 [label="voltage_mean <= 13.77\nmae = 0.3\nsamples = 3\nvalue = 66.81", fillcolor="#e5813914"] ;
363 -> 365 ;
366 [label="mae = 0.22\nsamples = 2\nvalue = 66.59", fillcolor="#e5813914"] ;
365 -> 366 ;
367 [label="mae = 0.0\nsamples = 1\nvalue = 67.27", fillcolor="#e5813914"] ;
365 -> 367 ;
368 [label="cosphi_mean <= 1.0\nmae = 2.12\nsamples = 8\nvalue = 53.8", fillcolor="#e581390f"] ;
362 -> 368 ;
369 [label="voltage_mean <= 13.71\nmae = 1.46\nsamples = 7\nvalue = 53.8", fillcolor="#e581390f"] ;
368 -> 369 ;
370 [label="mae = 0.48\nsamples = 2\nvalue = 54.97", fillcolor="#e5813910"] ;
369 -> 370 ;
371 [label="mae = 1.22\nsamples = 5\nvalue = 53.28", fillcolor="#e581390f"] ;
369 -> 371 ;
372 [label="mae = 0.0\nsamples = 1\nvalue = 47.4", fillcolor="#e581390d"] ;
368 -> 372 ;
373 [label="voltage_mean <= 13.79\nmae = 4.4\nsamples = 43\nvalue = 49.99", fillcolor="#e581390e"] ;
361 -> 373 ;
374 [label="is_spring <= 0.5\nmae = 1.18\nsamples = 2\nvalue = 38.62", fillcolor="#e5813909"] ;
373 -> 374 ;
375 [label="mae = 0.0\nsamples = 1\nvalue = 39.81", fillcolor="#e581390a"] ;
374 -> 375 ;
376 [label="mae = 0.0\nsamples = 1\nvalue = 37.44", fillcolor="#e5813909"] ;
374 -> 376 ;
377 [label="voltage_mean <= 13.9\nmae = 4.01\nsamples = 41\nvalue = 50.06", fillcolor="#e581390e"] ;
373 -> 377 ;
378 [label="voltage_mean <= 13.85\nmae = 3.67\nsamples = 36\nvalue = 50.78", fillcolor="#e581390e"] ;
377 -> 378 ;
379 [label="mae = 3.17\nsamples = 24\nvalue = 49.3", fillcolor="#e581390d"] ;
378 -> 379 ;
380 [label="mae = 3.6\nsamples = 12\nvalue = 53.01", fillcolor="#e581390f"] ;
378 -> 380 ;
381 [label="windspeed_mps <= 2.2\nmae = 3.04\nsamples = 5\nvalue = 44.26", fillcolor="#e581390c"] ;
377 -> 381 ;
382 [label="mae = 0.0\nsamples = 1\nvalue = 54.67", fillcolor="#e5813910"] ;
381 -> 382 ;
383 [label="mae = 2.12\nsamples = 4\nvalue = 44.26", fillcolor="#e581390c"] ;
381 -> 383 ;
384 [label="temp_celsius <= 17.0\nmae = 1.75\nsamples = 3\nvalue = 62.17", fillcolor="#e5813912"] ;
340 -> 384 ;
385 [label="mae = 0.0\nsamples = 1\nvalue = 65.27", fillcolor="#e5813914"] ;
384 -> 385 ;
386 [label="cosphi_mean <= 0.99\nmae = 0.85\nsamples = 2\nvalue = 62.17", fillcolor="#e5813912"] ;
384 -> 386 ;
387 [label="mae = 0.0\nsamples = 1\nvalue = 62.17", fillcolor="#e5813912"] ;
386 -> 387 ;
388 [label="mae = 0.0\nsamples = 1\nvalue = 59.62", fillcolor="#e5813911"] ;
386 -> 388 ;
389 [label="cosphi_mean <= 0.98\nmae = 54.17\nsamples = 412\nvalue = 102.14", fillcolor="#e5813922"] ;
1 -> 389 ;
390 [label="temp_celsius <= 25.5\nmae = 43.07\nsamples = 192\nvalue = 72.01", fillcolor="#e5813916"] ;
389 -> 390 ;
391 [label="temp_celsius <= 24.5\nmae = 25.27\nsamples = 166\nvalue = 70.73", fillcolor="#e5813916"] ;
390 -> 391 ;
392 [label="temp_celsius <= 18.5\nmae = 14.91\nsamples = 139\nvalue = 65.82", fillcolor="#e5813914"] ;
391 -> 392 ;
393 [label="load_factor <= 0.96\nmae = 5.16\nsamples = 63\nvalue = 63.12", fillcolor="#e5813913"] ;
392 -> 393 ;
394 [label="windspeed_mps <= 1.25\nmae = 4.97\nsamples = 27\nvalue = 65.11", fillcolor="#e5813914"] ;
393 -> 394 ;
395 [label="pression <= 1020.0\nmae = 2.64\nsamples = 5\nvalue = 72.83", fillcolor="#e5813917"] ;
394 -> 395 ;
396 [label="mae = 0.0\nsamples = 1\nvalue = 71.32", fillcolor="#e5813916"] ;
395 -> 396 ;
397 [label="voltage_mean <= 13.85\nmae = 2.42\nsamples = 4\nvalue = 74.33", fillcolor="#e5813917"] ;
395 -> 397 ;
398 [label="temp_celsius <= 17.0\nmae = 1.09\nsamples = 3\nvalue = 75.04", fillcolor="#e5813917"] ;
397 -> 398 ;
399 [label="mae = 0.47\nsamples = 2\nvalue = 74.33", fillcolor="#e5813917"] ;
398 -> 399 ;
400 [label="mae = 0.0\nsamples = 1\nvalue = 77.25", fillcolor="#e5813918"] ;
398 -> 400 ;
401 [label="mae = 0.0\nsamples = 1\nvalue = 66.57", fillcolor="#e5813914"] ;
397 -> 401 ;
402 [label="pression <= 1026.95\nmae = 4.22\nsamples = 22\nvalue = 64.63", fillcolor="#e5813913"] ;
394 -> 402 ;
403 [label="pression <= 1012.55\nmae = 3.55\nsamples = 21\nvalue = 64.29", fillcolor="#e5813913"] ;
402 -> 403 ;
404 [label="mae = 0.0\nsamples = 1\nvalue = 83.56", fillcolor="#e581391b"] ;
403 -> 404 ;
405 [label="load_factor <= 0.8\nmae = 2.99\nsamples = 20\nvalue = 64.29", fillcolor="#e5813913"] ;
403 -> 405 ;
406 [label="mae = 0.0\nsamples = 1\nvalue = 82.54", fillcolor="#e581391a"] ;
405 -> 406 ;
407 [label="mae = 2.42\nsamples = 19\nvalue = 64.29", fillcolor="#e5813913"] ;
405 -> 407 ;
408 [label="mae = 0.0\nsamples = 1\nvalue = 88.12", fillcolor="#e581391c"] ;
402 -> 408 ;
409 [label="windspeed_mps <= 6.2\nmae = 4.22\nsamples = 36\nvalue = 60.78", fillcolor="#e5813912"] ;
393 -> 409 ;
410 [label="windspeed_mps <= 4.25\nmae = 2.73\nsamples = 35\nvalue = 60.59", fillcolor="#e5813912"] ;
409 -> 410 ;
411 [label="load_factor <= 0.97\nmae = 2.56\nsamples = 23\nvalue = 58.79", fillcolor="#e5813911"] ;
410 -> 411 ;
412 [label="voltage_mean <= 13.95\nmae = 1.39\nsamples = 12\nvalue = 57.81", fillcolor="#e5813911"] ;
411 -> 412 ;
413 [label="mae = 0.5\nsamples = 11\nvalue = 57.81", fillcolor="#e5813911"] ;
412 -> 413 ;
414 [label="mae = 0.0\nsamples = 1\nvalue = 78.9", fillcolor="#e5813919"] ;
412 -> 414 ;
415 [label="load_factor <= 0.98\nmae = 2.55\nsamples = 11\nvalue = 60.63", fillcolor="#e5813912"] ;
411 -> 415 ;
416 [label="mae = 2.21\nsamples = 9\nvalue = 60.59", fillcolor="#e5813912"] ;
415 -> 416 ;
417 [label="mae = 0.22\nsamples = 2\nvalue = 64.81", fillcolor="#e5813913"] ;
415 -> 417 ;
418 [label="load_factor <= 0.96\nmae = 1.16\nsamples = 12\nvalue = 62.61", fillcolor="#e5813913"] ;
410 -> 418 ;
419 [label="mae = 0.0\nsamples = 1\nvalue = 66.57", fillcolor="#e5813914"] ;
418 -> 419 ;
420 [label="temp_celsius <= 16.5\nmae = 0.84\nsamples = 11\nvalue = 62.48", fillcolor="#e5813913"] ;
418 -> 420 ;
421 [label="mae = 0.64\nsamples = 9\nvalue = 62.23", fillcolor="#e5813912"] ;
420 -> 421 ;
422 [label="mae = 0.07\nsamples = 2\nvalue = 63.82", fillcolor="#e5813913"] ;
420 -> 422 ;
423 [label="mae = 0.0\nsamples = 1\nvalue = 94.12", fillcolor="#e581391f"] ;
409 -> 423 ;
424 [label="cosphi_mean <= 0.98\nmae = 20.16\nsamples = 76\nvalue = 72.01", fillcolor="#e5813916"] ;
392 -> 424 ;
425 [label="windspeed_mps <= 5.9\nmae = 17.67\nsamples = 75\nvalue = 71.89", fillcolor="#e5813916"] ;
424 -> 425 ;
426 [label="cosphi_mean <= 0.97\nmae = 15.82\nsamples = 66\nvalue = 72.88", fillcolor="#e5813917"] ;
425 -> 426 ;
427 [label="voltage_mean <= 13.86\nmae = 6.72\nsamples = 47\nvalue = 71.28", fillcolor="#e5813916"] ;
426 -> 427 ;
428 [label="load_factor <= 0.85\nmae = 6.22\nsamples = 33\nvalue = 72.26", fillcolor="#e5813916"] ;
427 -> 428 ;
429 [label="mae = 7.19\nsamples = 3\nvalue = 42.65", fillcolor="#e581390b"] ;
428 -> 429 ;
430 [label="mae = 4.86\nsamples = 30\nvalue = 72.26", fillcolor="#e5813916"] ;
428 -> 430 ;
431 [label="load_factor <= 0.91\nmae = 5.09\nsamples = 14\nvalue = 65.82", fillcolor="#e5813914"] ;
427 -> 431 ;
432 [label="mae = 0.81\nsamples = 2\nvalue = 45.9", fillcolor="#e581390c"] ;
431 -> 432 ;
433 [label="mae = 3.23\nsamples = 12\nvalue = 66.54", fillcolor="#e5813914"] ;
431 -> 433 ;
434 [label="temp_celsius <= 23.5\nmae = 28.98\nsamples = 19\nvalue = 94.94", fillcolor="#e581391f"] ;
426 -> 434 ;
435 [label="load_factor <= 0.92\nmae = 11.9\nsamples = 15\nvalue = 90.02", fillcolor="#e581391d"] ;
434 -> 435 ;
436 [label="mae = 8.22\nsamples = 8\nvalue = 102.14", fillcolor="#e5813922"] ;
435 -> 436 ;
437 [label="mae = 8.32\nsamples = 7\nvalue = 86.06", fillcolor="#e581391c"] ;
435 -> 437 ;
438 [label="voltage_mean <= 13.74\nmae = 48.55\nsamples = 4\nvalue = 190.19", fillcolor="#e5813944"] ;
434 -> 438 ;
439 [label="mae = 0.0\nsamples = 1\nvalue = 261.73", fillcolor="#e5813960"] ;
438 -> 439 ;
440 [label="mae = 26.61\nsamples = 3\nvalue = 169.3", fillcolor="#e581393c"] ;
438 -> 440 ;
441 [label="windspeed_mps <= 6.35\nmae = 8.5\nsamples = 9\nvalue = 41.29", fillcolor="#e581390a"] ;
425 -> 441 ;
442 [label="windspeed_mps <= 6.15\nmae = 4.35\nsamples = 2\nvalue = 25.16", fillcolor="#e5813904"] ;
441 -> 442 ;
443 [label="mae = 0.0\nsamples = 1\nvalue = 29.51", fillcolor="#e5813906"] ;
442 -> 443 ;
444 [label="mae = 0.0\nsamples = 1\nvalue = 20.82", fillcolor="#e5813902"] ;
442 -> 444 ;
445 [label="load_factor <= 0.9\nmae = 5.2\nsamples = 7\nvalue = 43.73", fillcolor="#e581390b"] ;
441 -> 445 ;
446 [label="pression <= 1013.35\nmae = 2.18\nsamples = 3\nvalue = 40.66", fillcolor="#e581390a"] ;
445 -> 446 ;
447 [label="mae = 0.63\nsamples = 2\nvalue = 41.29", fillcolor="#e581390a"] ;
446 -> 447 ;
448 [label="mae = 0.0\nsamples = 1\nvalue = 32.28", fillcolor="#e5813907"] ;
446 -> 448 ;
449 [label="pression <= 1014.85\nmae = 3.72\nsamples = 4\nvalue = 46.59", fillcolor="#e581390c"] ;
445 -> 449 ;
450 [label="mae = 0.64\nsamples = 3\nvalue = 46.59", fillcolor="#e581390c"] ;
449 -> 450 ;
451 [label="mae = 0.0\nsamples = 1\nvalue = 62.65", fillcolor="#e5813913"] ;
449 -> 451 ;
452 [label="mae = 0.0\nsamples = 1\nvalue = 255.21", fillcolor="#e581395d"] ;
424 -> 452 ;
453 [label="pression <= 1014.85\nmae = 64.7\nsamples = 27\nvalue = 108.91", fillcolor="#e5813925"] ;
391 -> 453 ;
454 [label="cosphi_mean <= 0.97\nmae = 36.57\nsamples = 23\nvalue = 96.0", fillcolor="#e5813920"] ;
453 -> 454 ;
455 [label="voltage_mean <= 13.87\nmae = 10.77\nsamples = 17\nvalue = 87.46", fillcolor="#e581391c"] ;
454 -> 455 ;
456 [label="windspeed_mps <= 2.95\nmae = 7.8\nsamples = 15\nvalue = 83.91", fillcolor="#e581391b"] ;
455 -> 456 ;
457 [label="load_factor <= 0.91\nmae = 6.43\nsamples = 4\nvalue = 90.57", fillcolor="#e581391d"] ;
456 -> 457 ;
458 [label="pression <= 1011.95\nmae = 3.91\nsamples = 2\nvalue = 103.53", fillcolor="#e5813922"] ;
457 -> 458 ;
459 [label="mae = 0.0\nsamples = 1\nvalue = 99.62", fillcolor="#e5813921"] ;
458 -> 459 ;
460 [label="mae = 0.0\nsamples = 1\nvalue = 107.44", fillcolor="#e5813924"] ;
458 -> 460 ;
461 [label="windspeed_mps <= 2.2\nmae = 1.03\nsamples = 2\nvalue = 87.46", fillcolor="#e581391c"] ;
457 -> 461 ;
462 [label="mae = 0.0\nsamples = 1\nvalue = 87.46", fillcolor="#e581391c"] ;
461 -> 462 ;
463 [label="mae = 0.0\nsamples = 1\nvalue = 90.57", fillcolor="#e581391d"] ;
461 -> 463 ;
464 [label="cosphi_mean <= 0.95\nmae = 6.53\nsamples = 11\nvalue = 81.58", fillcolor="#e581391a"] ;
456 -> 464 ;
465 [label="mae = 0.0\nsamples = 1\nvalue = 92.76", fillcolor="#e581391e"] ;
464 -> 465 ;
466 [label="load_factor <= 0.95\nmae = 6.19\nsamples = 10\nvalue = 81.11", fillcolor="#e581391a"] ;
464 -> 466 ;
467 [label="mae = 8.21\nsamples = 6\nvalue = 83.91", fillcolor="#e581391b"] ;
466 -> 467 ;
468 [label="mae = 2.19\nsamples = 4\nvalue = 80.08", fillcolor="#e5813919"] ;
466 -> 468 ;
469 [label="cosphi_mean <= 0.97\nmae = 9.31\nsamples = 2\nvalue = 127.18", fillcolor="#e581392c"] ;
455 -> 469 ;
470 [label="mae = 0.0\nsamples = 1\nvalue = 99.24", fillcolor="#e5813921"] ;
469 -> 470 ;
471 [label="mae = 0.0\nsamples = 1\nvalue = 127.18", fillcolor="#e581392c"] ;
469 -> 471 ;
472 [label="windspeed_mps <= 2.85\nmae = 53.5\nsamples = 6\nvalue = 181.58", fillcolor="#e5813941"] ;
454 -> 472 ;
473 [label="pression <= 1012.05\nmae = 11.69\nsamples = 3\nvalue = 225.52", fillcolor="#e5813952"] ;
472 -> 473 ;
474 [label="mae = 0.0\nsamples = 1\nvalue = 218.1", fillcolor="#e581394f"] ;
473 -> 474 ;
475 [label="load_factor <= 0.95\nmae = 8.53\nsamples = 2\nvalue = 232.95", fillcolor="#e5813954"] ;
473 -> 475 ;
476 [label="mae = 0.0\nsamples = 1\nvalue = 258.55", fillcolor="#e581395e"] ;
475 -> 476 ;
477 [label="mae = 0.0\nsamples = 1\nvalue = 232.95", fillcolor="#e5813954"] ;
475 -> 477 ;
478 [label="cosphi_mean <= 0.98\nmae = 22.27\nsamples = 3\nvalue = 128.16", fillcolor="#e581392c"] ;
472 -> 478 ;
479 [label="mae = 0.0\nsamples = 1\nvalue = 145.06", fillcolor="#e5813932"] ;
478 -> 479 ;
480 [label="is_summer <= 0.5\nmae = 10.74\nsamples = 2\nvalue = 111.26", fillcolor="#e5813925"] ;
478 -> 480 ;
481 [label="mae = 0.0\nsamples = 1\nvalue = 79.02", fillcolor="#e5813919"] ;
480 -> 481 ;
482 [label="mae = 0.0\nsamples = 1\nvalue = 111.26", fillcolor="#e5813925"] ;
480 -> 482 ;
483 [label="windspeed_mps <= 3.85\nmae = 63.17\nsamples = 4\nvalue = 325.07", fillcolor="#e5813978"] ;
453 -> 483 ;
484 [label="windspeed_mps <= 3.2\nmae = 11.7\nsamples = 2\nvalue = 410.43", fillcolor="#e5813999"] ;
483 -> 484 ;
485 [label="mae = 0.0\nsamples = 1\nvalue = 410.43", fillcolor="#e5813999"] ;
484 -> 485 ;
486 [label="mae = 0.0\nsamples = 1\nvalue = 375.33", fillcolor="#e581398b"] ;
484 -> 486 ;
487 [label="load_factor <= 0.91\nmae = 2.42\nsamples = 2\nvalue = 274.82", fillcolor="#e5813965"] ;
483 -> 487 ;
488 [label="mae = 0.0\nsamples = 1\nvalue = 267.55", fillcolor="#e5813962"] ;
487 -> 488 ;
489 [label="mae = 0.0\nsamples = 1\nvalue = 274.82", fillcolor="#e5813965"] ;
487 -> 489 ;
490 [label="voltage_mean <= 13.75\nmae = 110.15\nsamples = 26\nvalue = 268.85", fillcolor="#e5813962"] ;
390 -> 490 ;
491 [label="is_summer <= 0.5\nmae = 44.52\nsamples = 14\nvalue = 308.51", fillcolor="#e5813972"] ;
490 -> 491 ;
492 [label="voltage_mean <= 13.7\nmae = 31.1\nsamples = 8\nvalue = 354.39", fillcolor="#e5813983"] ;
491 -> 492 ;
493 [label="voltage_mean <= 13.69\nmae = 7.1\nsamples = 3\nvalue = 319.06", fillcolor="#e5813976"] ;
492 -> 493 ;
494 [label="mae = 0.0\nsamples = 1\nvalue = 302.57", fillcolor="#e581396f"] ;
493 -> 494 ;
495 [label="load_factor <= 0.94\nmae = 2.41\nsamples = 2\nvalue = 321.47", fillcolor="#e5813977"] ;
493 -> 495 ;
496 [label="mae = 0.0\nsamples = 1\nvalue = 323.88", fillcolor="#e5813978"] ;
495 -> 496 ;
497 [label="mae = 0.0\nsamples = 1\nvalue = 319.06", fillcolor="#e5813976"] ;
495 -> 497 ;
498 [label="cosphi_mean <= 0.97\nmae = 23.79\nsamples = 5\nvalue = 363.3", fillcolor="#e5813987"] ;
492 -> 498 ;
499 [label="mae = 0.0\nsamples = 1\nvalue = 446.5", fillcolor="#e58139a7"] ;
498 -> 499 ;
500 [label="voltage_mean <= 13.74\nmae = 13.89\nsamples = 4\nvalue = 363.3", fillcolor="#e5813987"] ;
498 -> 500 ;
501 [label="temp_celsius <= 26.5\nmae = 8.02\nsamples = 3\nvalue = 363.3", fillcolor="#e5813987"] ;
500 -> 501 ;
502 [label="mae = 0.0\nsamples = 1\nvalue = 345.48", fillcolor="#e5813980"] ;
501 -> 502 ;
503 [label="cosphi_mean <= 0.98\nmae = 1.48\nsamples = 2\nvalue = 363.3", fillcolor="#e5813987"] ;
501 -> 503 ;
504 [label="mae = 0.0\nsamples = 1\nvalue = 367.73", fillcolor="#e5813988"] ;
503 -> 504 ;
505 [label="mae = 0.0\nsamples = 1\nvalue = 363.3", fillcolor="#e5813987"] ;
503 -> 505 ;
506 [label="mae = 0.0\nsamples = 1\nvalue = 406.59", fillcolor="#e5813997"] ;
500 -> 506 ;
507 [label="cosphi_mean <= 0.97\nmae = 34.2\nsamples = 6\nvalue = 299.06", fillcolor="#e581396e"] ;
491 -> 507 ;
508 [label="mae = 0.0\nsamples = 1\nvalue = 204.57", fillcolor="#e5813949"] ;
507 -> 508 ;
509 [label="load_factor <= 0.92\nmae = 27.5\nsamples = 5\nvalue = 299.06", fillcolor="#e581396e"] ;
507 -> 509 ;
510 [label="load_factor <= 0.9\nmae = 43.54\nsamples = 3\nvalue = 266.75", fillcolor="#e5813961"] ;
509 -> 510 ;
511 [label="pression <= 1012.15\nmae = 2.11\nsamples = 2\nvalue = 268.85", fillcolor="#e5813962"] ;
510 -> 511 ;
512 [label="mae = 0.0\nsamples = 1\nvalue = 270.96", fillcolor="#e5813963"] ;
511 -> 512 ;
513 [label="mae = 0.0\nsamples = 1\nvalue = 266.75", fillcolor="#e5813961"] ;
511 -> 513 ;
514 [label="mae = 0.0\nsamples = 1\nvalue = 140.33", fillcolor="#e5813931"] ;
510 -> 514 ;
515 [label="load_factor <= 0.94\nmae = 4.72\nsamples = 2\nvalue = 303.79", fillcolor="#e5813970"] ;
509 -> 515 ;
516 [label="mae = 0.0\nsamples = 1\nvalue = 308.51", fillcolor="#e5813972"] ;
515 -> 516 ;
517 [label="mae = 0.0\nsamples = 1\nvalue = 299.06", fillcolor="#e581396e"] ;
515 -> 517 ;
518 [label="windspeed_mps <= 6.85\nmae = 77.16\nsamples = 12\nvalue = 99.02", fillcolor="#e5813921"] ;
490 -> 518 ;
519 [label="load_factor <= 0.94\nmae = 47.72\nsamples = 11\nvalue = 99.02", fillcolor="#e5813921"] ;
518 -> 519 ;
520 [label="cosphi_mean <= 0.96\nmae = 28.94\nsamples = 9\nvalue = 95.94", fillcolor="#e581391f"] ;
519 -> 520 ;
521 [label="load_factor <= 0.71\nmae = 2.38\nsamples = 2\nvalue = 52.07", fillcolor="#e581390f"] ;
520 -> 521 ;
522 [label="mae = 0.0\nsamples = 1\nvalue = 54.44", fillcolor="#e581390f"] ;
521 -> 522 ;
523 [label="mae = 0.0\nsamples = 1\nvalue = 49.69", fillcolor="#e581390e"] ;
521 -> 523 ;
524 [label="load_factor <= 0.85\nmae = 22.68\nsamples = 7\nvalue = 99.02", fillcolor="#e5813921"] ;
520 -> 524 ;
525 [label="mae = 0.0\nsamples = 1\nvalue = 234.61", fillcolor="#e5813955"] ;
524 -> 525 ;
526 [label="windspeed_mps <= 3.2\nmae = 11.38\nsamples = 6\nvalue = 99.02", fillcolor="#e5813921"] ;
524 -> 526 ;
527 [label="mae = 0.0\nsamples = 1\nvalue = 113.88", fillcolor="#e5813926"] ;
526 -> 527 ;
528 [label="pression <= 1007.6\nmae = 9.45\nsamples = 5\nvalue = 95.94", fillcolor="#e581391f"] ;
526 -> 528 ;
529 [label="mae = 0.77\nsamples = 2\nvalue = 99.02", fillcolor="#e5813921"] ;
528 -> 529 ;
530 [label="mae = 9.72\nsamples = 3\nvalue = 77.28", fillcolor="#e5813918"] ;
528 -> 530 ;
531 [label="temp_celsius <= 27.5\nmae = 26.43\nsamples = 2\nvalue = 213.14", fillcolor="#e581394d"] ;
519 -> 531 ;
532 [label="mae = 0.0\nsamples = 1\nvalue = 213.14", fillcolor="#e581394d"] ;
531 -> 532 ;
533 [label="mae = 0.0\nsamples = 1\nvalue = 292.42", fillcolor="#e581396b"] ;
531 -> 533 ;
534 [label="mae = 0.0\nsamples = 1\nvalue = 441.13", fillcolor="#e58139a5"] ;
518 -> 534 ;
535 [label="load_factor <= 0.92\nmae = 45.01\nsamples = 220\nvalue = 142.52", fillcolor="#e5813931"] ;
389 -> 535 ;
536 [label="is_winter <= 0.5\nmae = 34.46\nsamples = 98\nvalue = 117.36", fillcolor="#e5813928"] ;
535 -> 536 ;
537 [label="load_factor <= 0.83\nmae = 45.83\nsamples = 19\nvalue = 184.66", fillcolor="#e5813942"] ;
536 -> 537 ;
538 [label="voltage_mean <= 13.77\nmae = 2.78\nsamples = 6\nvalue = 120.69", fillcolor="#e5813929"] ;
537 -> 538 ;
539 [label="mae = 0.0\nsamples = 1\nvalue = 105.05", fillcolor="#e5813923"] ;
538 -> 539 ;
540 [label="load_factor <= 0.76\nmae = 1.7\nsamples = 5\nvalue = 120.69", fillcolor="#e5813929"] ;
538 -> 540 ;
541 [label="is_summer <= 0.5\nmae = 0.77\nsamples = 3\nvalue = 121.73", fillcolor="#e5813929"] ;
540 -> 541 ;
542 [label="cosphi_mean <= 0.99\nmae = 0.56\nsamples = 2\nvalue = 121.73", fillcolor="#e5813929"] ;
541 -> 542 ;
543 [label="mae = 0.0\nsamples = 1\nvalue = 123.96", fillcolor="#e581392a"] ;
542 -> 543 ;
544 [label="mae = 0.0\nsamples = 1\nvalue = 121.73", fillcolor="#e5813929"] ;
542 -> 544 ;
545 [label="mae = 0.0\nsamples = 1\nvalue = 120.69", fillcolor="#e5813929"] ;
541 -> 545 ;
546 [label="load_factor <= 0.79\nmae = 0.49\nsamples = 2\nvalue = 117.36", fillcolor="#e5813928"] ;
540 -> 546 ;
547 [label="mae = 0.0\nsamples = 1\nvalue = 118.84", fillcolor="#e5813928"] ;
546 -> 547 ;
548 [label="mae = 0.0\nsamples = 1\nvalue = 117.36", fillcolor="#e5813928"] ;
546 -> 548 ;
549 [label="windspeed_mps <= 6.85\nmae = 33.83\nsamples = 13\nvalue = 198.48", fillcolor="#e5813947"] ;
537 -> 549 ;
550 [label="load_factor <= 0.86\nmae = 24.9\nsamples = 12\nvalue = 196.36", fillcolor="#e5813946"] ;
549 -> 550 ;
551 [label="is_summer <= 0.5\nmae = 11.14\nsamples = 3\nvalue = 211.27", fillcolor="#e581394c"] ;
550 -> 551 ;
552 [label="mae = 0.0\nsamples = 1\nvalue = 237.48", fillcolor="#e5813956"] ;
551 -> 552 ;
553 [label="cosphi_mean <= 0.98\nmae = 5.12\nsamples = 2\nvalue = 211.27", fillcolor="#e581394c"] ;
551 -> 553 ;
554 [label="mae = 0.0\nsamples = 1\nvalue = 198.48", fillcolor="#e5813947"] ;
553 -> 554 ;
555 [label="mae = 0.0\nsamples = 1\nvalue = 211.27", fillcolor="#e581394c"] ;
553 -> 555 ;
556 [label="cosphi_mean <= 0.98\nmae = 23.4\nsamples = 9\nvalue = 184.66", fillcolor="#e5813942"] ;
550 -> 556 ;
557 [label="mae = 0.0\nsamples = 1\nvalue = 247.9", fillcolor="#e581395a"] ;
556 -> 557 ;
558 [label="load_factor <= 0.9\nmae = 20.08\nsamples = 8\nvalue = 184.66", fillcolor="#e5813942"] ;
556 -> 558 ;
559 [label="load_factor <= 0.88\nmae = 16.07\nsamples = 7\nvalue = 184.66", fillcolor="#e5813942"] ;
558 -> 559 ;
560 [label="mae = 20.55\nsamples = 4\nvalue = 157.99", fillcolor="#e5813937"] ;
559 -> 560 ;
561 [label="mae = 7.15\nsamples = 3\nvalue = 184.66", fillcolor="#e5813942"] ;
559 -> 561 ;
562 [label="mae = 0.0\nsamples = 1\nvalue = 120.48", fillcolor="#e5813929"] ;
558 -> 562 ;
563 [label="mae = 0.0\nsamples = 1\nvalue = 321.52", fillcolor="#e5813977"] ;
549 -> 563 ;
564 [label="pression <= 1018.0\nmae = 27.68\nsamples = 79\nvalue = 112.66", fillcolor="#e5813926"] ;
536 -> 564 ;
565 [label="pression <= 1011.8\nmae = 18.65\nsamples = 25\nvalue = 91.54", fillcolor="#e581391e"] ;
564 -> 565 ;
566 [label="windspeed_mps <= 5.95\nmae = 0.74\nsamples = 3\nvalue = 113.1", fillcolor="#e5813926"] ;
565 -> 566 ;
567 [label="windspeed_mps <= 5.75\nmae = 0.35\nsamples = 2\nvalue = 112.66", fillcolor="#e5813926"] ;
566 -> 567 ;
568 [label="mae = 0.0\nsamples = 1\nvalue = 112.66", fillcolor="#e5813926"] ;
567 -> 568 ;
569 [label="mae = 0.0\nsamples = 1\nvalue = 113.54", fillcolor="#e5813926"] ;
567 -> 569 ;
570 [label="mae = 0.0\nsamples = 1\nvalue = 115.35", fillcolor="#e5813927"] ;
566 -> 570 ;
571 [label="cosphi_mean <= 1.0\nmae = 17.59\nsamples = 22\nvalue = 87.65", fillcolor="#e581391c"] ;
565 -> 571 ;
572 [label="pression <= 1017.45\nmae = 15.57\nsamples = 21\nvalue = 87.59", fillcolor="#e581391c"] ;
571 -> 572 ;
573 [label="pression <= 1016.95\nmae = 15.1\nsamples = 18\nvalue = 88.34", fillcolor="#e581391d"] ;
572 -> 573 ;
574 [label="load_factor <= 0.82\nmae = 9.22\nsamples = 16\nvalue = 87.71", fillcolor="#e581391c"] ;
573 -> 574 ;
575 [label="mae = 7.05\nsamples = 2\nvalue = 115.89", fillcolor="#e5813927"] ;
574 -> 575 ;
576 [label="mae = 6.89\nsamples = 14\nvalue = 86.75", fillcolor="#e581391c"] ;
574 -> 576 ;
577 [label="voltage_mean <= 13.83\nmae = 1.52\nsamples = 2\nvalue = 176.7", fillcolor="#e581393f"] ;
573 -> 577 ;
578 [label="mae = 0.0\nsamples = 1\nvalue = 178.22", fillcolor="#e581393f"] ;
577 -> 578 ;
579 [label="mae = 0.0\nsamples = 1\nvalue = 175.18", fillcolor="#e581393e"] ;
577 -> 579 ;
580 [label="pression <= 1017.75\nmae = 0.15\nsamples = 3\nvalue = 69.21", fillcolor="#e5813915"] ;
572 -> 580 ;
581 [label="load_factor <= 0.87\nmae = 0.03\nsamples = 2\nvalue = 69.21", fillcolor="#e5813915"] ;
580 -> 581 ;
582 [label="mae = 0.0\nsamples = 1\nvalue = 69.3", fillcolor="#e5813915"] ;
581 -> 582 ;
583 [label="mae = 0.0\nsamples = 1\nvalue = 69.21", fillcolor="#e5813915"] ;
581 -> 583 ;
584 [label="mae = 0.0\nsamples = 1\nvalue = 68.7", fillcolor="#e5813915"] ;
580 -> 584 ;
585 [label="mae = 0.0\nsamples = 1\nvalue = 167.71", fillcolor="#e581393b"] ;
571 -> 585 ;
586 [label="temp_celsius <= 21.5\nmae = 28.71\nsamples = 54\nvalue = 120.97", fillcolor="#e5813929"] ;
564 -> 586 ;
587 [label="windspeed_mps <= 8.2\nmae = 27.53\nsamples = 51\nvalue = 121.69", fillcolor="#e5813929"] ;
586 -> 587 ;
588 [label="voltage_mean <= 13.76\nmae = 25.22\nsamples = 49\nvalue = 121.68", fillcolor="#e5813929"] ;
587 -> 588 ;
589 [label="pression <= 1020.55\nmae = 9.74\nsamples = 5\nvalue = 95.5", fillcolor="#e581391f"] ;
588 -> 589 ;
590 [label="mae = 0.0\nsamples = 1\nvalue = 155.29", fillcolor="#e5813936"] ;
589 -> 590 ;
591 [label="pression <= 1025.7\nmae = 3.48\nsamples = 4\nvalue = 95.48", fillcolor="#e581391f"] ;
589 -> 591 ;
592 [label="mae = 1.53\nsamples = 3\nvalue = 95.5", fillcolor="#e581391f"] ;
591 -> 592 ;
593 [label="mae = 0.0\nsamples = 1\nvalue = 78.39", fillcolor="#e5813919"] ;
591 -> 593 ;
594 [label="load_factor <= 0.89\nmae = 24.9\nsamples = 44\nvalue = 121.97", fillcolor="#e581392a"] ;
588 -> 594 ;
595 [label="load_factor <= 0.83\nmae = 16.99\nsamples = 28\nvalue = 121.68", fillcolor="#e5813929"] ;
594 -> 595 ;
596 [label="mae = 12.43\nsamples = 10\nvalue = 103.71", fillcolor="#e5813922"] ;
595 -> 596 ;
597 [label="mae = 15.96\nsamples = 18\nvalue = 123.66", fillcolor="#e581392a"] ;
595 -> 597 ;
598 [label="pression <= 1020.45\nmae = 33.14\nsamples = 16\nvalue = 146.99", fillcolor="#e5813933"] ;
594 -> 598 ;
599 [label="mae = 15.61\nsamples = 6\nvalue = 181.45", fillcolor="#e5813941"] ;
598 -> 599 ;
600 [label="mae = 24.08\nsamples = 10\nvalue = 122.75", fillcolor="#e581392a"] ;
598 -> 600 ;
601 [label="cosphi_mean <= 0.99\nmae = 9.08\nsamples = 2\nvalue = 200.85", fillcolor="#e5813948"] ;
587 -> 601 ;
602 [label="mae = 0.0\nsamples = 1\nvalue = 200.85", fillcolor="#e5813948"] ;
601 -> 602 ;
603 [label="mae = 0.0\nsamples = 1\nvalue = 228.1", fillcolor="#e5813953"] ;
601 -> 603 ;
604 [label="voltage_mean <= 13.86\nmae = 12.43\nsamples = 3\nvalue = 76.55", fillcolor="#e5813918"] ;
586 -> 604 ;
605 [label="voltage_mean <= 13.81\nmae = 3.74\nsamples = 2\nvalue = 67.2", fillcolor="#e5813914"] ;
604 -> 605 ;
606 [label="mae = 0.0\nsamples = 1\nvalue = 76.55", fillcolor="#e5813918"] ;
605 -> 606 ;
607 [label="mae = 0.0\nsamples = 1\nvalue = 67.2", fillcolor="#e5813914"] ;
605 -> 607 ;
608 [label="mae = 0.0\nsamples = 1\nvalue = 100.33", fillcolor="#e5813921"] ;
604 -> 608 ;
609 [label="temp_celsius <= 24.5\nmae = 44.52\nsamples = 122\nvalue = 164.3", fillcolor="#e581393a"] ;
535 -> 609 ;
610 [label="windspeed_mps <= 3.95\nmae = 35.76\nsamples = 104\nvalue = 160.16", fillcolor="#e5813938"] ;
609 -> 610 ;
611 [label="load_factor <= 0.95\nmae = 30.58\nsamples = 63\nvalue = 164.61", fillcolor="#e581393a"] ;
610 -> 611 ;
612 [label="cosphi_mean <= 0.98\nmae = 29.12\nsamples = 36\nvalue = 150.68", fillcolor="#e5813935"] ;
611 -> 612 ;
613 [label="mae = 0.0\nsamples = 1\nvalue = 245.72", fillcolor="#e5813959"] ;
612 -> 613 ;
614 [label="temp_celsius <= 15.5\nmae = 26.89\nsamples = 35\nvalue = 150.68", fillcolor="#e5813935"] ;
612 -> 614 ;
615 [label="cosphi_mean <= 0.99\nmae = 35.93\nsamples = 6\nvalue = 101.6", fillcolor="#e5813922"] ;
614 -> 615 ;
616 [label="temp_celsius <= 14.5\nmae = 2.41\nsamples = 2\nvalue = 79.37", fillcolor="#e5813919"] ;
615 -> 616 ;
617 [label="mae = 0.0\nsamples = 1\nvalue = 81.79", fillcolor="#e581391a"] ;
616 -> 617 ;
618 [label="mae = 0.0\nsamples = 1\nvalue = 76.96", fillcolor="#e5813918"] ;
616 -> 618 ;
619 [label="pression <= 1021.9\nmae = 35.65\nsamples = 4\nvalue = 120.35", fillcolor="#e5813929"] ;
615 -> 619 ;
620 [label="mae = 0.64\nsamples = 2\nvalue = 200.09", fillcolor="#e5813948"] ;
619 -> 620 ;
621 [label="mae = 6.25\nsamples = 2\nvalue = 120.35", fillcolor="#e5813929"] ;
619 -> 621 ;
622 [label="voltage_mean <= 13.91\nmae = 21.85\nsamples = 29\nvalue = 154.25", fillcolor="#e5813936"] ;
614 -> 622 ;
623 [label="temp_celsius <= 17.5\nmae = 20.38\nsamples = 28\nvalue = 150.68", fillcolor="#e5813935"] ;
622 -> 623 ;
624 [label="mae = 14.23\nsamples = 12\nvalue = 160.16", fillcolor="#e5813938"] ;
623 -> 624 ;
625 [label="mae = 20.34\nsamples = 16\nvalue = 143.07", fillcolor="#e5813932"] ;
623 -> 625 ;
626 [label="mae = 0.0\nsamples = 1\nvalue = 189.5", fillcolor="#e5813944"] ;
622 -> 626 ;
627 [label="load_factor <= 0.97\nmae = 23.87\nsamples = 27\nvalue = 177.34", fillcolor="#e581393f"] ;
611 -> 627 ;
628 [label="pression <= 1018.55\nmae = 18.02\nsamples = 24\nvalue = 179.28", fillcolor="#e5813940"] ;
627 -> 628 ;
629 [label="pression <= 1010.75\nmae = 20.18\nsamples = 9\nvalue = 189.02", fillcolor="#e5813943"] ;
628 -> 629 ;
630 [label="mae = 0.0\nsamples = 1\nvalue = 246.02", fillcolor="#e5813959"] ;
629 -> 630 ;
631 [label="voltage_mean <= 13.75\nmae = 17.11\nsamples = 8\nvalue = 187.49", fillcolor="#e5813943"] ;
629 -> 631 ;
632 [label="mae = 0.0\nsamples = 1\nvalue = 203.62", fillcolor="#e5813949"] ;
631 -> 632 ;
633 [label="mae = 17.0\nsamples = 7\nvalue = 185.96", fillcolor="#e5813942"] ;
631 -> 633 ;
634 [label="pression <= 1019.15\nmae = 13.94\nsamples = 15\nvalue = 174.19", fillcolor="#e581393e"] ;
628 -> 634 ;
635 [label="voltage_mean <= 13.83\nmae = 30.89\nsamples = 3\nvalue = 81.23", fillcolor="#e581391a"] ;
634 -> 635 ;
636 [label="mae = 2.07\nsamples = 2\nvalue = 79.16", fillcolor="#e5813919"] ;
635 -> 636 ;
637 [label="mae = 0.0\nsamples = 1\nvalue = 169.76", fillcolor="#e581393c"] ;
635 -> 637 ;
638 [label="load_factor <= 0.97\nmae = 7.55\nsamples = 12\nvalue = 175.14", fillcolor="#e581393e"] ;
634 -> 638 ;
639 [label="mae = 4.0\nsamples = 10\nvalue = 172.99", fillcolor="#e581393d"] ;
638 -> 639 ;
640 [label="mae = 3.15\nsamples = 2\nvalue = 198.3", fillcolor="#e5813947"] ;
638 -> 640 ;
641 [label="pression <= 1022.05\nmae = 34.48\nsamples = 3\nvalue = 83.14", fillcolor="#e581391b"] ;
627 -> 641 ;
642 [label="windspeed_mps <= 2.85\nmae = 8.21\nsamples = 2\nvalue = 83.14", fillcolor="#e581391b"] ;
641 -> 642 ;
643 [label="mae = 0.0\nsamples = 1\nvalue = 83.14", fillcolor="#e581391b"] ;
642 -> 643 ;
644 [label="mae = 0.0\nsamples = 1\nvalue = 58.5", fillcolor="#e5813911"] ;
642 -> 644 ;
645 [label="mae = 0.0\nsamples = 1\nvalue = 196.41", fillcolor="#e5813946"] ;
641 -> 645 ;
646 [label="windspeed_mps <= 8.05\nmae = 39.02\nsamples = 41\nvalue = 131.06", fillcolor="#e581392d"] ;
610 -> 646 ;
647 [label="pression <= 1011.3\nmae = 34.31\nsamples = 35\nvalue = 129.89", fillcolor="#e581392d"] ;
646 -> 647 ;
648 [label="cosphi_mean <= 0.99\nmae = 3.05\nsamples = 2\nvalue = 234.0", fillcolor="#e5813955"] ;
647 -> 648 ;
649 [label="mae = 0.0\nsamples = 1\nvalue = 243.14", fillcolor="#e5813958"] ;
648 -> 649 ;
650 [label="mae = 0.0\nsamples = 1\nvalue = 234.0", fillcolor="#e5813955"] ;
648 -> 650 ;
651 [label="windspeed_mps <= 4.15\nmae = 29.61\nsamples = 33\nvalue = 125.2", fillcolor="#e581392b"] ;
647 -> 651 ;
652 [label="temp_celsius <= 17.5\nmae = 1.99\nsamples = 3\nvalue = 90.8", fillcolor="#e581391e"] ;
651 -> 652 ;
653 [label="pression <= 1020.85\nmae = 0.45\nsamples = 2\nvalue = 91.25", fillcolor="#e581391e"] ;
652 -> 653 ;
654 [label="mae = 0.0\nsamples = 1\nvalue = 90.8", fillcolor="#e581391e"] ;
653 -> 654 ;
655 [label="mae = 0.0\nsamples = 1\nvalue = 91.7", fillcolor="#e581391e"] ;
653 -> 655 ;
656 [label="mae = 0.0\nsamples = 1\nvalue = 79.55", fillcolor="#e5813919"] ;
652 -> 656 ;
657 [label="voltage_mean <= 13.9\nmae = 27.92\nsamples = 30\nvalue = 131.06", fillcolor="#e581392d"] ;
651 -> 657 ;
658 [label="load_factor <= 0.93\nmae = 25.21\nsamples = 27\nvalue = 129.89", fillcolor="#e581392d"] ;
657 -> 658 ;
659 [label="mae = 21.68\nsamples = 5\nvalue = 75.92", fillcolor="#e5813918"] ;
658 -> 659 ;
660 [label="mae = 21.33\nsamples = 22\nvalue = 131.06", fillcolor="#e581392d"] ;
658 -> 660 ;
661 [label="windspeed_mps <= 4.55\nmae = 8.25\nsamples = 3\nvalue = 188.26", fillcolor="#e5813943"] ;
657 -> 661 ;
662 [label="mae = 0.0\nsamples = 1\nvalue = 207.08", fillcolor="#e581394a"] ;
661 -> 662 ;
663 [label="mae = 2.97\nsamples = 2\nvalue = 185.29", fillcolor="#e5813942"] ;
661 -> 663 ;
664 [label="load_factor <= 0.95\nmae = 21.12\nsamples = 6\nvalue = 202.32", fillcolor="#e5813949"] ;
646 -> 664 ;
665 [label="windspeed_mps <= 9.2\nmae = 18.06\nsamples = 4\nvalue = 191.45", fillcolor="#e5813944"] ;
664 -> 665 ;
666 [label="pression <= 1020.3\nmae = 12.95\nsamples = 2\nvalue = 191.45", fillcolor="#e5813944"] ;
665 -> 666 ;
667 [label="mae = 0.0\nsamples = 1\nvalue = 191.45", fillcolor="#e5813944"] ;
666 -> 667 ;
668 [label="mae = 0.0\nsamples = 1\nvalue = 230.29", fillcolor="#e5813953"] ;
666 -> 668 ;
669 [label="temp_celsius <= 15.5\nmae = 1.43\nsamples = 2\nvalue = 165.73", fillcolor="#e581393a"] ;
665 -> 669 ;
670 [label="mae = 0.0\nsamples = 1\nvalue = 164.3", fillcolor="#e581393a"] ;
669 -> 670 ;
671 [label="mae = 0.0\nsamples = 1\nvalue = 167.16", fillcolor="#e581393b"] ;
669 -> 671 ;
672 [label="load_factor <= 0.96\nmae = 4.48\nsamples = 2\nvalue = 213.19", fillcolor="#e581394d"] ;
664 -> 672 ;
673 [label="mae = 0.0\nsamples = 1\nvalue = 213.19", fillcolor="#e581394d"] ;
672 -> 673 ;
674 [label="mae = 0.0\nsamples = 1\nvalue = 226.64", fillcolor="#e5813952"] ;
672 -> 674 ;
675 [label="cosphi_mean <= 0.99\nmae = 54.8\nsamples = 18\nvalue = 253.49", fillcolor="#e581395c"] ;
609 -> 675 ;
676 [label="cosphi_mean <= 0.98\nmae = 26.14\nsamples = 14\nvalue = 256.04", fillcolor="#e581395d"] ;
675 -> 676 ;
677 [label="pression <= 1010.15\nmae = 5.28\nsamples = 2\nvalue = 304.42", fillcolor="#e5813970"] ;
676 -> 677 ;
678 [label="mae = 0.0\nsamples = 1\nvalue = 320.27", fillcolor="#e5813976"] ;
677 -> 678 ;
679 [label="mae = 0.0\nsamples = 1\nvalue = 304.42", fillcolor="#e5813970"] ;
677 -> 679 ;
680 [label="pression <= 1013.25\nmae = 22.2\nsamples = 12\nvalue = 256.04", fillcolor="#e581395d"] ;
676 -> 680 ;
681 [label="temp_celsius <= 25.5\nmae = 20.27\nsamples = 7\nvalue = 235.48", fillcolor="#e5813955"] ;
680 -> 681 ;
682 [label="windspeed_mps <= 3.25\nmae = 13.6\nsamples = 2\nvalue = 193.66", fillcolor="#e5813945"] ;
681 -> 682 ;
683 [label="mae = 0.0\nsamples = 1\nvalue = 193.66", fillcolor="#e5813945"] ;
682 -> 683 ;
684 [label="mae = 0.0\nsamples = 1\nvalue = 152.84", fillcolor="#e5813935"] ;
682 -> 684 ;
685 [label="pression <= 1009.8\nmae = 8.76\nsamples = 5\nvalue = 242.39", fillcolor="#e5813958"] ;
681 -> 685 ;
686 [label="windspeed_mps <= 6.15\nmae = 2.31\nsamples = 2\nvalue = 256.04", fillcolor="#e581395d"] ;
685 -> 686 ;
687 [label="mae = 0.0\nsamples = 1\nvalue = 256.04", fillcolor="#e581395d"] ;
686 -> 687 ;
688 [label="mae = 0.0\nsamples = 1\nvalue = 244.49", fillcolor="#e5813959"] ;
686 -> 688 ;
689 [label="load_factor <= 0.94\nmae = 1.19\nsamples = 3\nvalue = 235.48", fillcolor="#e5813955"] ;
685 -> 689 ;
690 [label="mae = 0.29\nsamples = 2\nvalue = 235.48", fillcolor="#e5813955"] ;
689 -> 690 ;
691 [label="mae = 0.0\nsamples = 1\nvalue = 240.28", fillcolor="#e5813957"] ;
689 -> 691 ;
692 [label="windspeed_mps <= 6.05\nmae = 11.95\nsamples = 5\nvalue = 261.58", fillcolor="#e581395f"] ;
680 -> 692 ;
693 [label="voltage_mean <= 13.65\nmae = 3.42\nsamples = 4\nvalue = 261.38", fillcolor="#e581395f"] ;
692 -> 693 ;
694 [label="mae = 0.0\nsamples = 1\nvalue = 273.63", fillcolor="#e5813964"] ;
693 -> 694 ;
695 [label="is_spring <= 0.5\nmae = 1.66\nsamples = 3\nvalue = 261.38", fillcolor="#e581395f"] ;
693 -> 695 ;
696 [label="mae = 0.0\nsamples = 1\nvalue = 253.49", fillcolor="#e581395c"] ;
695 -> 696 ;
697 [label="mae = 0.1\nsamples = 2\nvalue = 261.38", fillcolor="#e581395f"] ;
695 -> 697 ;
698 [label="mae = 0.0\nsamples = 1\nvalue = 298.89", fillcolor="#e581396e"] ;
692 -> 698 ;
699 [label="pression <= 1009.4\nmae = 2.9\nsamples = 4\nvalue = 61.35", fillcolor="#e5813912"] ;
675 -> 699 ;
700 [label="mae = 0.0\nsamples = 1\nvalue = 72.02", fillcolor="#e5813916"] ;
699 -> 700 ;
701 [label="load_factor <= 0.93\nmae = 0.96\nsamples = 3\nvalue = 61.35", fillcolor="#e5813912"] ;
699 -> 701 ;
702 [label="mae = 0.0\nsamples = 1\nvalue = 58.6", fillcolor="#e5813911"] ;
701 -> 702 ;
703 [label="windspeed_mps <= 4.2\nmae = 0.37\nsamples = 2\nvalue = 61.35", fillcolor="#e5813912"] ;
701 -> 703 ;
704 [label="mae = 0.0\nsamples = 1\nvalue = 62.45", fillcolor="#e5813913"] ;
703 -> 704 ;
705 [label="mae = 0.0\nsamples = 1\nvalue = 61.35", fillcolor="#e5813912"] ;
703 -> 705 ;
706 [label="temp_celsius <= 23.5\nmae = 110.56\nsamples = 1746\nvalue = 201.95", fillcolor="#e5813948"] ;
0 -> 706 [labeldistance=2.5, labelangle=-45, headlabel="False"] ;
707 [label="cosphi_mean <= 0.98\nmae = 78.71\nsamples = 1382\nvalue = 172.15", fillcolor="#e581393d"] ;
706 -> 707 ;
708 [label="temp_celsius <= 22.5\nmae = 72.18\nsamples = 444\nvalue = 81.8", fillcolor="#e581391a"] ;
707 -> 708 ;
709 [label="load_factor <= 0.8\nmae = 32.37\nsamples = 326\nvalue = 76.86", fillcolor="#e5813918"] ;
708 -> 709 ;
710 [label="voltage_mean <= 13.79\nmae = 45.41\nsamples = 25\nvalue = 145.48", fillcolor="#e5813933"] ;
709 -> 710 ;
711 [label="voltage_mean <= 13.78\nmae = 15.16\nsamples = 4\nvalue = 286.5", fillcolor="#e5813969"] ;
710 -> 711 ;
712 [label="temp_celsius <= 21.5\nmae = 5.94\nsamples = 3\nvalue = 289.03", fillcolor="#e581396a"] ;
711 -> 712 ;
713 [label="mae = 0.0\nsamples = 1\nvalue = 266.03", fillcolor="#e5813961"] ;
712 -> 713 ;
714 [label="is_fall <= 0.5\nmae = 2.03\nsamples = 2\nvalue = 291.56", fillcolor="#e581396b"] ;
712 -> 714 ;
715 [label="mae = 0.0\nsamples = 1\nvalue = 286.5", fillcolor="#e5813969"] ;
714 -> 715 ;
716 [label="mae = 0.0\nsamples = 1\nvalue = 291.56", fillcolor="#e581396b"] ;
714 -> 716 ;
717 [label="mae = 0.0\nsamples = 1\nvalue = 216.02", fillcolor="#e581394e"] ;
711 -> 717 ;
718 [label="load_factor <= 0.72\nmae = 28.06\nsamples = 21\nvalue = 133.78", fillcolor="#e581392e"] ;
710 -> 718 ;
719 [label="voltage_mean <= 13.81\nmae = 29.27\nsamples = 11\nvalue = 160.0", fillcolor="#e5813938"] ;
718 -> 719 ;
720 [label="load_factor <= 0.69\nmae = 32.13\nsamples = 3\nvalue = 281.45", fillcolor="#e5813967"] ;
719 -> 720 ;
721 [label="mae = 0.0\nsamples = 1\nvalue = 166.03", fillcolor="#e581393b"] ;
720 -> 721 ;
722 [label="is_fall <= 0.5\nmae = 4.37\nsamples = 2\nvalue = 281.45", fillcolor="#e5813967"] ;
720 -> 722 ;
723 [label="mae = 0.0\nsamples = 1\nvalue = 281.45", fillcolor="#e5813967"] ;
722 -> 723 ;
724 [label="mae = 0.0\nsamples = 1\nvalue = 294.56", fillcolor="#e581396c"] ;
722 -> 724 ;
725 [label="load_factor <= 0.7\nmae = 8.17\nsamples = 8\nvalue = 157.4", fillcolor="#e5813937"] ;
719 -> 725 ;
726 [label="pression <= 1011.65\nmae = 4.65\nsamples = 5\nvalue = 160.89", fillcolor="#e5813939"] ;
725 -> 726 ;
727 [label="mae = 0.0\nsamples = 1\nvalue = 170.42", fillcolor="#e581393c"] ;
726 -> 727 ;
728 [label="load_factor <= 0.69\nmae = 2.52\nsamples = 4\nvalue = 160.0", fillcolor="#e5813938"] ;
726 -> 728 ;
729 [label="mae = 1.52\nsamples = 3\nvalue = 158.7", fillcolor="#e5813938"] ;
728 -> 729 ;
730 [label="mae = 0.0\nsamples = 1\nvalue = 166.5", fillcolor="#e581393b"] ;
728 -> 730 ;
731 [label="load_factor <= 0.71\nmae = 1.4\nsamples = 3\nvalue = 145.48", fillcolor="#e5813933"] ;
725 -> 731 ;
732 [label="mae = 0.0\nsamples = 1\nvalue = 152.92", fillcolor="#e5813935"] ;
731 -> 732 ;
733 [label="load_factor <= 0.72\nmae = 0.19\nsamples = 2\nvalue = 145.48", fillcolor="#e5813933"] ;
731 -> 733 ;
734 [label="mae = 0.0\nsamples = 1\nvalue = 144.54", fillcolor="#e5813932"] ;
733 -> 734 ;
735 [label="mae = 0.0\nsamples = 1\nvalue = 145.48", fillcolor="#e5813933"] ;
733 -> 735 ;
736 [label="cosphi_mean <= 0.96\nmae = 3.24\nsamples = 10\nvalue = 120.8", fillcolor="#e5813929"] ;
718 -> 736 ;
737 [label="mae = 0.0\nsamples = 1\nvalue = 133.78", fillcolor="#e581392e"] ;
736 -> 737 ;
738 [label="voltage_mean <= 13.89\nmae = 2.02\nsamples = 9\nvalue = 120.65", fillcolor="#e5813929"] ;
736 -> 738 ;
739 [label="windspeed_mps <= 3.3\nmae = 1.79\nsamples = 8\nvalue = 120.8", fillcolor="#e5813929"] ;
738 -> 739 ;
740 [label="temp_celsius <= 19.5\nmae = 1.16\nsamples = 7\nvalue = 120.49", fillcolor="#e5813929"] ;
739 -> 740 ;
741 [label="mae = 0.0\nsamples = 1\nvalue = 113.87", fillcolor="#e5813926"] ;
740 -> 741 ;
742 [label="mae = 0.62\nsamples = 6\nvalue = 120.65", fillcolor="#e5813929"] ;
740 -> 742 ;
743 [label="mae = 0.0\nsamples = 1\nvalue = 124.81", fillcolor="#e581392b"] ;
739 -> 743 ;
744 [label="mae = 0.0\nsamples = 1\nvalue = 117.19", fillcolor="#e5813928"] ;
738 -> 744 ;
745 [label="voltage_mean <= 13.71\nmae = 26.71\nsamples = 301\nvalue = 75.94", fillcolor="#e5813918"] ;
709 -> 745 ;
746 [label="voltage_mean <= 13.69\nmae = 22.96\nsamples = 4\nvalue = 337.42", fillcolor="#e581397d"] ;
745 -> 746 ;
747 [label="mae = 0.0\nsamples = 1\nvalue = 381.37", fillcolor="#e581398e"] ;
746 -> 747 ;
748 [label="pression <= 1016.0\nmae = 11.17\nsamples = 3\nvalue = 334.83", fillcolor="#e581397c"] ;
746 -> 748 ;
749 [label="mae = 0.0\nsamples = 1\nvalue = 295.32", fillcolor="#e581396c"] ;
748 -> 749 ;
750 [label="cosphi_mean <= 0.97\nmae = 1.73\nsamples = 2\nvalue = 334.83", fillcolor="#e581397c"] ;
748 -> 750 ;
751 [label="mae = 0.0\nsamples = 1\nvalue = 340.01", fillcolor="#e581397e"] ;
750 -> 751 ;
752 [label="mae = 0.0\nsamples = 1\nvalue = 334.83", fillcolor="#e581397c"] ;
750 -> 752 ;
753 [label="temp_celsius <= 19.5\nmae = 23.51\nsamples = 297\nvalue = 75.76", fillcolor="#e5813918"] ;
745 -> 753 ;
754 [label="voltage_mean <= 13.81\nmae = 4.33\nsamples = 99\nvalue = 70.08", fillcolor="#e5813916"] ;
753 -> 754 ;
755 [label="load_factor <= 0.94\nmae = 3.53\nsamples = 13\nvalue = 82.0", fillcolor="#e581391a"] ;
754 -> 755 ;
756 [label="cosphi_mean <= 0.97\nmae = 1.74\nsamples = 8\nvalue = 82.65", fillcolor="#e581391a"] ;
755 -> 756 ;
757 [label="temp_celsius <= 18.5\nmae = 0.29\nsamples = 2\nvalue = 75.94", fillcolor="#e5813918"] ;
756 -> 757 ;
758 [label="mae = 0.0\nsamples = 1\nvalue = 75.65", fillcolor="#e5813918"] ;
757 -> 758 ;
759 [label="mae = 0.0\nsamples = 1\nvalue = 76.23", fillcolor="#e5813918"] ;
757 -> 759 ;
760 [label="windspeed_mps <= 2.35\nmae = 0.91\nsamples = 6\nvalue = 82.65", fillcolor="#e581391a"] ;
756 -> 760 ;
761 [label="mae = 0.25\nsamples = 4\nvalue = 82.65", fillcolor="#e581391a"] ;
760 -> 761 ;
762 [label="mae = 1.12\nsamples = 2\nvalue = 84.41", fillcolor="#e581391b"] ;
760 -> 762 ;
763 [label="load_factor <= 0.97\nmae = 0.44\nsamples = 5\nvalue = 76.04", fillcolor="#e5813918"] ;
755 -> 763 ;
764 [label="windspeed_mps <= 2.7\nmae = 0.31\nsamples = 4\nvalue = 76.04", fillcolor="#e5813918"] ;
763 -> 764 ;
765 [label="mae = 0.04\nsamples = 2\nvalue = 76.04", fillcolor="#e5813918"] ;
764 -> 765 ;
766 [label="mae = 0.14\nsamples = 2\nvalue = 75.08", fillcolor="#e5813917"] ;
764 -> 766 ;
767 [label="mae = 0.0\nsamples = 1\nvalue = 76.94", fillcolor="#e5813918"] ;
763 -> 767 ;
768 [label="pression <= 1019.25\nmae = 3.37\nsamples = 86\nvalue = 69.48", fillcolor="#e5813915"] ;
754 -> 768 ;
769 [label="cosphi_mean <= 0.96\nmae = 3.25\nsamples = 58\nvalue = 70.38", fillcolor="#e5813916"] ;
768 -> 769 ;
770 [label="load_factor <= 0.94\nmae = 3.89\nsamples = 6\nvalue = 80.41", fillcolor="#e581391a"] ;
769 -> 770 ;
771 [label="mae = 0.71\nsamples = 3\nvalue = 81.49", fillcolor="#e581391a"] ;
770 -> 771 ;
772 [label="mae = 2.32\nsamples = 3\nvalue = 74.27", fillcolor="#e5813917"] ;
770 -> 772 ;
773 [label="windspeed_mps <= 0.6\nmae = 2.78\nsamples = 52\nvalue = 70.08", fillcolor="#e5813916"] ;
769 -> 773 ;
774 [label="mae = 0.0\nsamples = 1\nvalue = 83.06", fillcolor="#e581391b"] ;
773 -> 774 ;
775 [label="mae = 2.54\nsamples = 51\nvalue = 70.02", fillcolor="#e5813915"] ;
773 -> 775 ;
776 [label="cosphi_mean <= 0.97\nmae = 2.78\nsamples = 28\nvalue = 67.29", fillcolor="#e5813914"] ;
768 -> 776 ;
777 [label="is_fall <= 0.5\nmae = 1.5\nsamples = 14\nvalue = 69.16", fillcolor="#e5813915"] ;
776 -> 777 ;
778 [label="mae = 1.1\nsamples = 7\nvalue = 69.92", fillcolor="#e5813915"] ;
777 -> 778 ;
779 [label="mae = 0.35\nsamples = 7\nvalue = 67.9", fillcolor="#e5813915"] ;
777 -> 779 ;
780 [label="pression <= 1020.1\nmae = 2.47\nsamples = 14\nvalue = 64.72", fillcolor="#e5813913"] ;
776 -> 780 ;
781 [label="mae = 0.67\nsamples = 5\nvalue = 66.94", fillcolor="#e5813914"] ;
780 -> 781 ;
782 [label="mae = 2.02\nsamples = 9\nvalue = 62.73", fillcolor="#e5813913"] ;
780 -> 782 ;
783 [label="cosphi_mean <= 0.98\nmae = 32.07\nsamples = 198\nvalue = 79.54", fillcolor="#e5813919"] ;
753 -> 783 ;
784 [label="load_factor <= 0.82\nmae = 26.7\nsamples = 195\nvalue = 79.47", fillcolor="#e5813919"] ;
783 -> 784 ;
785 [label="voltage_mean <= 13.82\nmae = 7.27\nsamples = 4\nvalue = 102.95", fillcolor="#e5813922"] ;
784 -> 785 ;
786 [label="pression <= 1016.15\nmae = 2.04\nsamples = 2\nvalue = 102.95", fillcolor="#e5813922"] ;
785 -> 786 ;
787 [label="mae = 0.0\nsamples = 1\nvalue = 113.13", fillcolor="#e5813926"] ;
786 -> 787 ;
788 [label="mae = 0.0\nsamples = 1\nvalue = 102.95", fillcolor="#e5813922"] ;
786 -> 788 ;
789 [label="windspeed_mps <= 2.3\nmae = 3.46\nsamples = 2\nvalue = 123.31", fillcolor="#e581392a"] ;
785 -> 789 ;
790 [label="mae = 0.0\nsamples = 1\nvalue = 119.85", fillcolor="#e5813929"] ;
789 -> 790 ;
791 [label="mae = 0.0\nsamples = 1\nvalue = 126.77", fillcolor="#e581392b"] ;
789 -> 791 ;
792 [label="windspeed_mps <= 9.2\nmae = 26.59\nsamples = 191\nvalue = 79.23", fillcolor="#e5813919"] ;
784 -> 792 ;
793 [label="load_factor <= 0.95\nmae = 26.11\nsamples = 190\nvalue = 79.2", fillcolor="#e5813919"] ;
792 -> 793 ;
794 [label="mae = 28.18\nsamples = 130\nvalue = 80.99", fillcolor="#e581391a"] ;
793 -> 794 ;
795 [label="mae = 19.35\nsamples = 60\nvalue = 75.1", fillcolor="#e5813917"] ;
793 -> 795 ;
796 [label="mae = 0.0\nsamples = 1\nvalue = 243.61", fillcolor="#e5813959"] ;
792 -> 796 ;
797 [label="windspeed_mps <= 6.6\nmae = 30.08\nsamples = 3\nvalue = 401.09", fillcolor="#e5813995"] ;
783 -> 797 ;
798 [label="pression <= 1014.55\nmae = 0.74\nsamples = 2\nvalue = 401.09", fillcolor="#e5813995"] ;
797 -> 798 ;
799 [label="mae = 0.0\nsamples = 1\nvalue = 401.09", fillcolor="#e5813995"] ;
798 -> 799 ;
800 [label="mae = 0.0\nsamples = 1\nvalue = 402.95", fillcolor="#e5813996"] ;
798 -> 800 ;
801 [label="mae = 0.0\nsamples = 1\nvalue = 224.34", fillcolor="#e5813951"] ;
797 -> 801 ;
802 [label="cosphi_mean <= 0.97\nmae = 131.54\nsamples = 118\nvalue = 292.82", fillcolor="#e581396c"] ;
708 -> 802 ;
803 [label="voltage_mean <= 13.74\nmae = 65.44\nsamples = 40\nvalue = 82.72", fillcolor="#e581391a"] ;
802 -> 803 ;
804 [label="pression <= 1015.2\nmae = 46.6\nsamples = 2\nvalue = 585.67", fillcolor="#e58139dd"] ;
803 -> 804 ;
805 [label="mae = 0.0\nsamples = 1\nvalue = 585.67", fillcolor="#e58139dd"] ;
804 -> 805 ;
806 [label="mae = 0.0\nsamples = 1\nvalue = 399.25", fillcolor="#e5813995"] ;
804 -> 806 ;
807 [label="load_factor <= 0.91\nmae = 34.69\nsamples = 38\nvalue = 80.92", fillcolor="#e581391a"] ;
803 -> 807 ;
808 [label="pression <= 1016.7\nmae = 90.12\nsamples = 8\nvalue = 170.47", fillcolor="#e581393c"] ;
807 -> 808 ;
809 [label="pression <= 1011.2\nmae = 82.06\nsamples = 4\nvalue = 342.46", fillcolor="#e581397f"] ;
808 -> 809 ;
810 [label="load_factor <= 0.8\nmae = 30.5\nsamples = 2\nvalue = 186.84", fillcolor="#e5813943"] ;
809 -> 810 ;
811 [label="mae = 0.0\nsamples = 1\nvalue = 186.84", fillcolor="#e5813943"] ;
810 -> 811 ;
812 [label="mae = 0.0\nsamples = 1\nvalue = 95.34", fillcolor="#e581391f"] ;
810 -> 812 ;
813 [label="voltage_mean <= 13.84\nmae = 4.03\nsamples = 2\nvalue = 346.48", fillcolor="#e5813980"] ;
809 -> 813 ;
814 [label="mae = 0.0\nsamples = 1\nvalue = 350.51", fillcolor="#e5813982"] ;
813 -> 814 ;
815 [label="mae = 0.0\nsamples = 1\nvalue = 342.46", fillcolor="#e581397f"] ;
813 -> 815 ;
816 [label="load_factor <= 0.8\nmae = 19.63\nsamples = 4\nvalue = 124.28", fillcolor="#e581392a"] ;
808 -> 816 ;
817 [label="load_factor <= 0.75\nmae = 9.94\nsamples = 2\nvalue = 124.28", fillcolor="#e581392a"] ;
816 -> 817 ;
818 [label="mae = 0.0\nsamples = 1\nvalue = 154.1", fillcolor="#e5813936"] ;
817 -> 818 ;
819 [label="mae = 0.0\nsamples = 1\nvalue = 124.28", fillcolor="#e581392a"] ;
817 -> 819 ;
820 [label="cosphi_mean <= 0.95\nmae = 7.39\nsamples = 2\nvalue = 90.1", fillcolor="#e581391d"] ;
816 -> 820 ;
821 [label="mae = 0.0\nsamples = 1\nvalue = 82.72", fillcolor="#e581391a"] ;
820 -> 821 ;
822 [label="mae = 0.0\nsamples = 1\nvalue = 97.49", fillcolor="#e5813920"] ;
820 -> 822 ;
823 [label="pression <= 1014.6\nmae = 7.71\nsamples = 30\nvalue = 79.93", fillcolor="#e5813919"] ;
807 -> 823 ;
824 [label="cosphi_mean <= 0.96\nmae = 3.38\nsamples = 12\nvalue = 73.26", fillcolor="#e5813917"] ;
823 -> 824 ;
825 [label="cosphi_mean <= 0.96\nmae = 2.65\nsamples = 7\nvalue = 73.67", fillcolor="#e5813917"] ;
824 -> 825 ;
826 [label="load_factor <= 0.95\nmae = 2.31\nsamples = 6\nvalue = 73.26", fillcolor="#e5813917"] ;
825 -> 826 ;
827 [label="mae = 0.0\nsamples = 1\nvalue = 69.3", fillcolor="#e5813915"] ;
826 -> 827 ;
828 [label="mae = 2.04\nsamples = 5\nvalue = 73.67", fillcolor="#e5813917"] ;
826 -> 828 ;
829 [label="mae = 0.0\nsamples = 1\nvalue = 78.28", fillcolor="#e5813919"] ;
825 -> 829 ;
830 [label="is_spring <= 0.5\nmae = 2.28\nsamples = 5\nvalue = 69.24", fillcolor="#e5813915"] ;
824 -> 830 ;
831 [label="voltage_mean <= 13.8\nmae = 0.18\nsamples = 4\nvalue = 69.22", fillcolor="#e5813915"] ;
830 -> 831 ;
832 [label="mae = 0.0\nsamples = 1\nvalue = 69.58", fillcolor="#e5813915"] ;
831 -> 832 ;
833 [label="mae = 0.11\nsamples = 3\nvalue = 69.2", fillcolor="#e5813915"] ;
831 -> 833 ;
834 [label="mae = 0.0\nsamples = 1\nvalue = 79.93", fillcolor="#e5813919"] ;
830 -> 834 ;
835 [label="windspeed_mps <= 3.55\nmae = 7.81\nsamples = 18\nvalue = 80.92", fillcolor="#e581391a"] ;
823 -> 835 ;
836 [label="cosphi_mean <= 0.96\nmae = 4.69\nsamples = 13\nvalue = 80.8", fillcolor="#e581391a"] ;
835 -> 836 ;
837 [label="cosphi_mean <= 0.95\nmae = 2.0\nsamples = 8\nvalue = 80.92", fillcolor="#e581391a"] ;
836 -> 837 ;
838 [label="mae = 0.27\nsamples = 2\nvalue = 86.34", fillcolor="#e581391c"] ;
837 -> 838 ;
839 [label="mae = 1.06\nsamples = 6\nvalue = 80.86", fillcolor="#e581391a"] ;
837 -> 839 ;
840 [label="cosphi_mean <= 0.97\nmae = 6.21\nsamples = 5\nvalue = 74.04", fillcolor="#e5813917"] ;
836 -> 840 ;
841 [label="mae = 1.48\nsamples = 4\nvalue = 73.64", fillcolor="#e5813917"] ;
840 -> 841 ;
842 [label="mae = 0.0\nsamples = 1\nvalue = 103.48", fillcolor="#e5813922"] ;
840 -> 842 ;
843 [label="cosphi_mean <= 0.96\nmae = 6.3\nsamples = 5\nvalue = 94.08", fillcolor="#e581391f"] ;
835 -> 843 ;
844 [label="mae = 0.0\nsamples = 1\nvalue = 110.53", fillcolor="#e5813925"] ;
843 -> 844 ;
845 [label="load_factor <= 0.96\nmae = 1.75\nsamples = 4\nvalue = 91.66", fillcolor="#e581391e"] ;
843 -> 845 ;
846 [label="mae = 1.1\nsamples = 3\nvalue = 91.03", fillcolor="#e581391e"] ;
845 -> 846 ;
847 [label="mae = 0.0\nsamples = 1\nvalue = 94.08", fillcolor="#e581391f"] ;
845 -> 847 ;
848 [label="load_factor <= 0.85\nmae = 95.37\nsamples = 78\nvalue = 352.2", fillcolor="#e5813982"] ;
802 -> 848 ;
849 [label="voltage_mean <= 13.79\nmae = 66.44\nsamples = 18\nvalue = 162.96", fillcolor="#e5813939"] ;
848 -> 849 ;
850 [label="load_factor <= 0.79\nmae = 44.96\nsamples = 7\nvalue = 291.74", fillcolor="#e581396b"] ;
849 -> 850 ;
851 [label="load_factor <= 0.74\nmae = 33.34\nsamples = 5\nvalue = 283.41", fillcolor="#e5813968"] ;
850 -> 851 ;
852 [label="pression <= 1006.1\nmae = 7.01\nsamples = 4\nvalue = 283.41", fillcolor="#e5813968"] ;
851 -> 852 ;
853 [label="mae = 0.0\nsamples = 1\nvalue = 307.7", fillcolor="#e5813971"] ;
852 -> 853 ;
854 [label="load_factor <= 0.7\nmae = 2.69\nsamples = 3\nvalue = 283.41", fillcolor="#e5813968"] ;
852 -> 854 ;
855 [label="mae = 0.0\nsamples = 1\nvalue = 291.74", fillcolor="#e581396b"] ;
854 -> 855 ;
856 [label="mae = 0.82\nsamples = 2\nvalue = 283.41", fillcolor="#e5813968"] ;
854 -> 856 ;
857 [label="mae = 0.0\nsamples = 1\nvalue = 118.42", fillcolor="#e5813928"] ;
851 -> 857 ;
858 [label="cosphi_mean <= 0.97\nmae = 22.8\nsamples = 2\nvalue = 331.58", fillcolor="#e581397a"] ;
850 -> 858 ;
859 [label="mae = 0.0\nsamples = 1\nvalue = 331.58", fillcolor="#e581397a"] ;
858 -> 859 ;
860 [label="mae = 0.0\nsamples = 1\nvalue = 399.99", fillcolor="#e5813995"] ;
858 -> 860 ;
861 [label="cosphi_mean <= 0.97\nmae = 33.24\nsamples = 11\nvalue = 147.43", fillcolor="#e5813933"] ;
849 -> 861 ;
862 [label="mae = 0.0\nsamples = 1\nvalue = 421.06", fillcolor="#e581399d"] ;
861 -> 862 ;
863 [label="load_factor <= 0.84\nmae = 21.79\nsamples = 10\nvalue = 147.43", fillcolor="#e5813933"] ;
861 -> 863 ;
864 [label="load_factor <= 0.8\nmae = 16.55\nsamples = 9\nvalue = 149.43", fillcolor="#e5813934"] ;
863 -> 864 ;
865 [label="load_factor <= 0.64\nmae = 11.26\nsamples = 8\nvalue = 147.43", fillcolor="#e5813933"] ;
864 -> 865 ;
866 [label="mae = 0.0\nsamples = 1\nvalue = 185.65", fillcolor="#e5813942"] ;
865 -> 866 ;
867 [label="mae = 7.41\nsamples = 7\nvalue = 147.43", fillcolor="#e5813933"] ;
865 -> 867 ;
868 [label="mae = 0.0\nsamples = 1\nvalue = 206.23", fillcolor="#e581394a"] ;
864 -> 868 ;
869 [label="mae = 0.0\nsamples = 1\nvalue = 94.18", fillcolor="#e581391f"] ;
863 -> 869 ;
870 [label="is_spring <= 0.5\nmae = 73.95\nsamples = 60\nvalue = 367.74", fillcolor="#e5813988"] ;
848 -> 870 ;
871 [label="cosphi_mean <= 0.97\nmae = 52.98\nsamples = 44\nvalue = 373.94", fillcolor="#e581398b"] ;
870 -> 871 ;
872 [label="windspeed_mps <= 7.35\nmae = 69.74\nsamples = 15\nvalue = 412.85", fillcolor="#e581399a"] ;
871 -> 872 ;
873 [label="load_factor <= 0.96\nmae = 47.99\nsamples = 14\nvalue = 420.54", fillcolor="#e581399d"] ;
872 -> 873 ;
874 [label="voltage_mean <= 13.74\nmae = 38.36\nsamples = 12\nvalue = 402.07", fillcolor="#e5813996"] ;
873 -> 874 ;
875 [label="mae = 18.56\nsamples = 4\nvalue = 389.3", fillcolor="#e5813991"] ;
874 -> 875 ;
876 [label="mae = 37.86\nsamples = 8\nvalue = 440.33", fillcolor="#e58139a4"] ;
874 -> 876 ;
877 [label="load_factor <= 0.97\nmae = 34.28\nsamples = 2\nvalue = 481.55", fillcolor="#e58139b4"] ;
873 -> 877 ;
878 [label="mae = 0.0\nsamples = 1\nvalue = 481.55", fillcolor="#e58139b4"] ;
877 -> 878 ;
879 [label="mae = 0.0\nsamples = 1\nvalue = 275.86", fillcolor="#e5813965"] ;
877 -> 879 ;
880 [label="mae = 0.0\nsamples = 1\nvalue = 68.06", fillcolor="#e5813915"] ;
872 -> 880 ;
881 [label="load_factor <= 0.88\nmae = 38.59\nsamples = 29\nvalue = 371.13", fillcolor="#e581398a"] ;
871 -> 881 ;
882 [label="windspeed_mps <= 3.05\nmae = 47.03\nsamples = 4\nvalue = 292.82", fillcolor="#e581396c"] ;
881 -> 882 ;
883 [label="mae = 0.0\nsamples = 1\nvalue = 108.69", fillcolor="#e5813924"] ;
882 -> 883 ;
884 [label="pression <= 1017.2\nmae = 29.89\nsamples = 3\nvalue = 312.48", fillcolor="#e5813973"] ;
882 -> 884 ;
885 [label="mae = 13.11\nsamples = 2\nvalue = 292.82", fillcolor="#e581396c"] ;
884 -> 885 ;
886 [label="mae = 0.0\nsamples = 1\nvalue = 373.05", fillcolor="#e581398a"] ;
884 -> 886 ;
887 [label="pression <= 1007.65\nmae = 30.96\nsamples = 25\nvalue = 373.84", fillcolor="#e581398b"] ;
881 -> 887 ;
888 [label="mae = 0.0\nsamples = 1\nvalue = 507.73", fillcolor="#e58139be"] ;
887 -> 888 ;
889 [label="pression <= 1024.5\nmae = 28.38\nsamples = 24\nvalue = 372.48", fillcolor="#e581398a"] ;
887 -> 889 ;
890 [label="mae = 26.82\nsamples = 23\nvalue = 371.13", fillcolor="#e581398a"] ;
889 -> 890 ;
891 [label="mae = 0.0\nsamples = 1\nvalue = 429.17", fillcolor="#e58139a0"] ;
889 -> 891 ;
892 [label="load_factor <= 0.95\nmae = 111.31\nsamples = 16\nvalue = 281.56", fillcolor="#e5813967"] ;
870 -> 892 ;
893 [label="cosphi_mean <= 0.97\nmae = 75.52\nsamples = 11\nvalue = 305.52", fillcolor="#e5813970"] ;
892 -> 893 ;
894 [label="mae = 0.0\nsamples = 1\nvalue = 88.28", fillcolor="#e581391d"] ;
893 -> 894 ;
895 [label="voltage_mean <= 13.85\nmae = 54.99\nsamples = 10\nvalue = 311.67", fillcolor="#e5813973"] ;
893 -> 895 ;
896 [label="voltage_mean <= 13.81\nmae = 43.16\nsamples = 9\nvalue = 315.89", fillcolor="#e5813974"] ;
895 -> 896 ;
897 [label="mae = 38.4\nsamples = 6\nvalue = 303.58", fillcolor="#e5813970"] ;
896 -> 897 ;
898 [label="mae = 8.49\nsamples = 3\nvalue = 363.44", fillcolor="#e5813987"] ;
896 -> 898 ;
899 [label="mae = 0.0\nsamples = 1\nvalue = 107.04", fillcolor="#e5813924"] ;
895 -> 899 ;
900 [label="voltage_mean <= 13.77\nmae = 69.56\nsamples = 5\nvalue = 87.1", fillcolor="#e581391c"] ;
892 -> 900 ;
901 [label="mae = 0.0\nsamples = 1\nvalue = 468.7", fillcolor="#e58139af"] ;
900 -> 901 ;
902 [label="load_factor <= 0.95\nmae = 6.71\nsamples = 4\nvalue = 84.92", fillcolor="#e581391b"] ;
900 -> 902 ;
903 [label="mae = 0.0\nsamples = 1\nvalue = 106.29", fillcolor="#e5813923"] ;
902 -> 903 ;
904 [label="voltage_mean <= 13.81\nmae = 3.05\nsamples = 3\nvalue = 84.92", fillcolor="#e581391b"] ;
902 -> 904 ;
905 [label="mae = 0.0\nsamples = 1\nvalue = 77.1", fillcolor="#e5813918"] ;
904 -> 905 ;
906 [label="mae = 1.46\nsamples = 2\nvalue = 84.92", fillcolor="#e581391b"] ;
904 -> 906 ;
907 [label="temp_celsius <= 20.5\nmae = 60.5\nsamples = 938\nvalue = 198.12", fillcolor="#e5813947"] ;
707 -> 907 ;
908 [label="cosphi_mean <= 0.99\nmae = 51.73\nsamples = 643\nvalue = 180.46", fillcolor="#e5813940"] ;
907 -> 908 ;
909 [label="temp_celsius <= 19.5\nmae = 50.37\nsamples = 174\nvalue = 85.2", fillcolor="#e581391b"] ;
908 -> 909 ;
910 [label="load_factor <= 0.87\nmae = 27.73\nsamples = 125\nvalue = 78.32", fillcolor="#e5813919"] ;
909 -> 910 ;
911 [label="voltage_mean <= 13.78\nmae = 14.67\nsamples = 32\nvalue = 112.94", fillcolor="#e5813926"] ;
910 -> 911 ;
912 [label="load_factor <= 0.76\nmae = 8.27\nsamples = 3\nvalue = 73.6", fillcolor="#e5813917"] ;
911 -> 912 ;
913 [label="mae = 0.0\nsamples = 1\nvalue = 102.57", fillcolor="#e5813922"] ;
912 -> 913 ;
914 [label="load_factor <= 0.81\nmae = 0.92\nsamples = 2\nvalue = 72.23", fillcolor="#e5813916"] ;
912 -> 914 ;
915 [label="mae = 0.0\nsamples = 1\nvalue = 72.23", fillcolor="#e5813916"] ;
914 -> 915 ;
916 [label="mae = 0.0\nsamples = 1\nvalue = 74.98", fillcolor="#e5813917"] ;
914 -> 916 ;
917 [label="pression <= 1017.85\nmae = 12.81\nsamples = 29\nvalue = 114.64", fillcolor="#e5813927"] ;
911 -> 917 ;
918 [label="temp_celsius <= 18.5\nmae = 14.05\nsamples = 15\nvalue = 119.08", fillcolor="#e5813928"] ;
917 -> 918 ;
919 [label="cosphi_mean <= 0.98\nmae = 6.39\nsamples = 11\nvalue = 117.03", fillcolor="#e5813928"] ;
918 -> 919 ;
920 [label="mae = 0.0\nsamples = 1\nvalue = 76.38", fillcolor="#e5813918"] ;
919 -> 920 ;
921 [label="mae = 3.75\nsamples = 10\nvalue = 117.03", fillcolor="#e5813928"] ;
919 -> 921 ;
922 [label="cosphi_mean <= 0.98\nmae = 16.99\nsamples = 4\nvalue = 149.12", fillcolor="#e5813934"] ;
918 -> 922 ;
923 [label="mae = 4.21\nsamples = 2\nvalue = 124.94", fillcolor="#e581392b"] ;
922 -> 923 ;
924 [label="mae = 13.39\nsamples = 2\nvalue = 149.12", fillcolor="#e5813934"] ;
922 -> 924 ;
925 [label="windspeed_mps <= 3.45\nmae = 8.67\nsamples = 14\nvalue = 109.74", fillcolor="#e5813925"] ;
917 -> 925 ;
926 [label="cosphi_mean <= 0.98\nmae = 4.35\nsamples = 11\nvalue = 109.74", fillcolor="#e5813925"] ;
925 -> 926 ;
927 [label="mae = 0.69\nsamples = 2\nvalue = 119.23", fillcolor="#e5813928"] ;
926 -> 927 ;
928 [label="mae = 3.24\nsamples = 9\nvalue = 109.72", fillcolor="#e5813925"] ;
926 -> 928 ;
929 [label="voltage_mean <= 13.82\nmae = 11.29\nsamples = 3\nvalue = 85.2", fillcolor="#e581391b"] ;
925 -> 929 ;
930 [label="mae = 0.0\nsamples = 1\nvalue = 111.92", fillcolor="#e5813926"] ;
929 -> 930 ;
931 [label="mae = 3.57\nsamples = 2\nvalue = 81.63", fillcolor="#e581391a"] ;
929 -> 931 ;
932 [label="load_factor <= 0.94\nmae = 24.31\nsamples = 93\nvalue = 71.2", fillcolor="#e5813916"] ;
910 -> 932 ;
933 [label="load_factor <= 0.93\nmae = 37.31\nsamples = 38\nvalue = 83.55", fillcolor="#e581391b"] ;
932 -> 933 ;
934 [label="temp_celsius <= 17.5\nmae = 26.22\nsamples = 37\nvalue = 83.55", fillcolor="#e581391b"] ;
933 -> 934 ;
935 [label="windspeed_mps <= 7.15\nmae = 14.76\nsamples = 21\nvalue = 76.79", fillcolor="#e5813918"] ;
934 -> 935 ;
936 [label="mae = 6.39\nsamples = 20\nvalue = 76.3", fillcolor="#e5813918"] ;
935 -> 936 ;
937 [label="mae = 0.0\nsamples = 1\nvalue = 179.15", fillcolor="#e5813940"] ;
935 -> 937 ;
938 [label="pression <= 1021.0\nmae = 33.09\nsamples = 16\nvalue = 87.33", fillcolor="#e581391c"] ;
934 -> 938 ;
939 [label="mae = 23.0\nsamples = 15\nvalue = 86.46", fillcolor="#e581391c"] ;
938 -> 939 ;
940 [label="mae = 0.0\nsamples = 1\nvalue = 251.5", fillcolor="#e581395c"] ;
938 -> 940 ;
941 [label="mae = 0.0\nsamples = 1\nvalue = 262.22", fillcolor="#e5813960"] ;
933 -> 941 ;
942 [label="windspeed_mps <= 6.15\nmae = 9.73\nsamples = 55\nvalue = 65.43", fillcolor="#e5813914"] ;
932 -> 942 ;
943 [label="cosphi_mean <= 0.99\nmae = 9.38\nsamples = 52\nvalue = 65.04", fillcolor="#e5813914"] ;
942 -> 943 ;
944 [label="cosphi_mean <= 0.99\nmae = 9.81\nsamples = 50\nvalue = 65.43", fillcolor="#e5813914"] ;
943 -> 944 ;
945 [label="mae = 4.1\nsamples = 48\nvalue = 65.04", fillcolor="#e5813914"] ;
944 -> 945 ;
946 [label="mae = 70.34\nsamples = 2\nvalue = 81.37", fillcolor="#e581391a"] ;
944 -> 946 ;
947 [label="cosphi_mean <= 0.99\nmae = 0.42\nsamples = 2\nvalue = 61.09", fillcolor="#e5813912"] ;
943 -> 947 ;
948 [label="mae = 0.0\nsamples = 1\nvalue = 61.51", fillcolor="#e5813912"] ;
947 -> 948 ;
949 [label="mae = 0.0\nsamples = 1\nvalue = 60.67", fillcolor="#e5813912"] ;
947 -> 949 ;
950 [label="pression <= 1016.45\nmae = 3.11\nsamples = 3\nvalue = 81.57", fillcolor="#e581391a"] ;
942 -> 950 ;
951 [label="mae = 0.0\nsamples = 1\nvalue = 78.58", fillcolor="#e5813919"] ;
950 -> 951 ;
952 [label="is_spring <= 0.5\nmae = 0.25\nsamples = 2\nvalue = 84.81", fillcolor="#e581391b"] ;
950 -> 952 ;
953 [label="mae = 0.0\nsamples = 1\nvalue = 84.56", fillcolor="#e581391b"] ;
952 -> 953 ;
954 [label="mae = 0.0\nsamples = 1\nvalue = 85.05", fillcolor="#e581391b"] ;
952 -> 954 ;
955 [label="cosphi_mean <= 0.98\nmae = 72.08\nsamples = 49\nvalue = 222.84", fillcolor="#e5813950"] ;
909 -> 955 ;
956 [label="is_fall <= 0.5\nmae = 67.85\nsamples = 19\nvalue = 88.28", fillcolor="#e581391d"] ;
955 -> 956 ;
957 [label="pression <= 1021.15\nmae = 45.5\nsamples = 14\nvalue = 85.03", fillcolor="#e581391b"] ;
956 -> 957 ;
958 [label="windspeed_mps <= 7.55\nmae = 14.65\nsamples = 11\nvalue = 77.23", fillcolor="#e5813918"] ;
957 -> 958 ;
959 [label="pression <= 1015.8\nmae = 6.1\nsamples = 10\nvalue = 76.98", fillcolor="#e5813918"] ;
958 -> 959 ;
960 [label="mae = 2.78\nsamples = 7\nvalue = 75.17", fillcolor="#e5813917"] ;
959 -> 960 ;
961 [label="mae = 1.3\nsamples = 3\nvalue = 88.28", fillcolor="#e581391d"] ;
959 -> 961 ;
962 [label="mae = 0.0\nsamples = 1\nvalue = 202.86", fillcolor="#e5813949"] ;
958 -> 962 ;
963 [label="load_factor <= 0.97\nmae = 77.39\nsamples = 3\nvalue = 264.38", fillcolor="#e5813961"] ;
957 -> 963 ;
964 [label="voltage_mean <= 13.85\nmae = 31.48\nsamples = 2\nvalue = 311.61", fillcolor="#e5813973"] ;
963 -> 964 ;
965 [label="mae = 0.0\nsamples = 1\nvalue = 311.61", fillcolor="#e5813973"] ;
964 -> 965 ;
966 [label="mae = 0.0\nsamples = 1\nvalue = 217.15", fillcolor="#e581394e"] ;
964 -> 966 ;
967 [label="mae = 0.0\nsamples = 1\nvalue = 96.51", fillcolor="#e5813920"] ;
963 -> 967 ;
968 [label="cosphi_mean <= 0.98\nmae = 32.46\nsamples = 5\nvalue = 235.62", fillcolor="#e5813955"] ;
956 -> 968 ;
969 [label="mae = 0.0\nsamples = 1\nvalue = 124.16", fillcolor="#e581392a"] ;
968 -> 969 ;
970 [label="cosphi_mean <= 0.98\nmae = 14.11\nsamples = 4\nvalue = 248.41", fillcolor="#e581395a"] ;
968 -> 970 ;
971 [label="pression <= 1015.65\nmae = 3.94\nsamples = 3\nvalue = 256.01", fillcolor="#e581395d"] ;
970 -> 971 ;
972 [label="mae = 2.1\nsamples = 2\nvalue = 258.11", fillcolor="#e581395e"] ;
971 -> 972 ;
973 [label="mae = 0.0\nsamples = 1\nvalue = 248.41", fillcolor="#e581395a"] ;
971 -> 973 ;
974 [label="mae = 0.0\nsamples = 1\nvalue = 222.84", fillcolor="#e5813950"] ;
970 -> 974 ;
975 [label="pression <= 1012.1\nmae = 54.98\nsamples = 30\nvalue = 234.08", fillcolor="#e5813955"] ;
955 -> 975 ;
976 [label="load_factor <= 0.84\nmae = 39.72\nsamples = 4\nvalue = 88.17", fillcolor="#e581391c"] ;
975 -> 976 ;
977 [label="mae = 0.0\nsamples = 1\nvalue = 207.08", fillcolor="#e581394a"] ;
976 -> 977 ;
978 [label="load_factor <= 0.9\nmae = 6.17\nsamples = 3\nvalue = 78.74", fillcolor="#e5813919"] ;
976 -> 978 ;
979 [label="mae = 0.0\nsamples = 1\nvalue = 88.17", fillcolor="#e581391c"] ;
